%YAML:1.0
my_svm: !!opencv-ml-svm
   svm_type: C_SVC
   kernel: { type:RBF, gamma:5.0625000000000009e-001 }
   C: 6.2500000000000000e+001
   term_criteria: { epsilon:2.2204460492503131e-016, iterations:20000 }
   var_all: 200
   var_count: 200
   class_count: 4
   class_labels: !!opencv-matrix
      rows: 1
      cols: 4
      dt: i
      data: [ 1, 2, 3, 4 ]
   sv_total: 419
   support_vectors:
      - [ 1.63666124e-003, 1.63666124e-003, 1.14566283e-002, 0.,
          1.63666124e-003, 9.81996767e-003, 4.90998384e-003,
          3.27332248e-003, 8.18330608e-003, 3.27332248e-003,
          8.18330608e-003, 1.63666124e-003, 6.54664496e-003,
          3.27332248e-003, 3.27332248e-003, 2.29132567e-002,
          3.27332248e-003, 1.63666124e-003, 1.47299515e-002,
          1.63666124e-003, 4.90998384e-003, 6.54664496e-003,
          6.54664496e-003, 6.54664496e-003, 8.18330608e-003,
          3.27332248e-003, 3.27332248e-003, 4.90998384e-003,
          3.27332248e-003, 1.63666124e-003, 6.54664496e-003,
          9.81996767e-003, 4.90998384e-003, 4.90998384e-003,
          1.14566283e-002, 1.63666124e-003, 6.54664496e-003,
          6.54664496e-003, 4.90998384e-003, 1.14566283e-002,
          8.18330608e-003, 3.27332248e-003, 1.63666124e-003,
          4.90998384e-003, 0., 1.63666124e-003, 0., 3.27332248e-003, 0.,
          4.90998384e-003, 4.90998384e-003, 1.14566283e-002, 0.,
          4.90998384e-003, 3.27332248e-003, 6.54664496e-003,
          4.90998384e-003, 4.90998384e-003, 4.90998384e-003,
          1.63666124e-003, 3.27332248e-003, 3.27332248e-003,
          4.90998384e-003, 4.90998384e-003, 8.18330608e-003,
          3.27332248e-003, 8.18330608e-003, 1.63666124e-003,
          1.63666124e-003, 4.90998384e-003, 6.54664496e-003,
          1.63666124e-003, 1.14566283e-002, 4.90998384e-003,
          1.63666122e-002, 3.27332248e-003, 4.90998384e-003,
          1.63666124e-003, 3.27332248e-003, 6.54664496e-003,
          4.90998384e-003, 6.54664496e-003, 1.63666124e-003,
          6.54664496e-003, 8.18330608e-003, 4.90998384e-003,
          1.63666124e-003, 4.90998384e-003, 3.27332248e-003, 0.,
          6.54664496e-003, 3.27332248e-003, 3.27332248e-003,
          4.90998384e-003, 3.27332248e-003, 6.54664496e-003,
          4.90998384e-003, 6.54664496e-003, 4.90998384e-003,
          3.27332248e-003, 1.63666124e-003, 3.27332248e-003,
          3.27332248e-003, 6.54664496e-003, 3.27332248e-003,
          1.63666124e-003, 0., 3.27332248e-003, 8.18330608e-003,
          4.90998384e-003, 6.54664496e-003, 3.27332248e-003,
          3.27332248e-003, 6.54664496e-003, 8.18330608e-003, 0.,
          4.90998384e-003, 9.81996767e-003, 3.27332248e-003,
          3.27332248e-003, 4.90998384e-003, 1.47299515e-002,
          8.18330608e-003, 1.63666124e-003, 4.90998384e-003,
          1.63666124e-003, 9.81996767e-003, 1.63666124e-003,
          6.54664496e-003, 1.63666124e-003, 1.63666124e-003,
          9.81996767e-003, 8.18330608e-003, 8.18330608e-003,
          4.90998384e-003, 3.27332248e-003, 9.81996767e-003,
          4.90998384e-003, 4.90998384e-003, 1.63666124e-003,
          1.14566283e-002, 9.81996767e-003, 4.90998384e-003,
          1.63666124e-003, 1.63666124e-003, 1.14566283e-002,
          3.27332248e-003, 4.90998384e-003, 3.27332248e-003,
          1.63666124e-003, 3.27332248e-003, 4.90998384e-003,
          1.14566283e-002, 4.90998384e-003, 1.63666124e-003,
          6.54664496e-003, 3.27332248e-003, 6.54664496e-003,
          1.63666124e-003, 1.63666124e-003, 8.18330608e-003,
          1.63666124e-003, 6.54664496e-003, 4.90998384e-003,
          1.47299515e-002, 6.54664496e-003, 0., 0., 4.90998384e-003,
          3.27332248e-003, 8.18330608e-003, 8.18330608e-003,
          6.54664496e-003, 6.54664496e-003, 3.27332248e-003,
          6.54664496e-003, 6.54664496e-003, 6.54664496e-003,
          3.27332248e-003, 8.18330608e-003, 6.54664496e-003,
          6.54664496e-003, 1.14566283e-002, 3.27332248e-003,
          4.90998384e-003, 1.63666124e-003, 1.63666124e-003,
          1.63666124e-003, 4.90998384e-003, 3.27332248e-003,
          3.27332248e-003, 6.54664496e-003, 3.27332248e-003, 0.,
          4.90998384e-003, 3.27332248e-003, 8.18330608e-003,
          1.63666124e-003, 4.90998384e-003, 4.90998384e-003 ]
      - [ 4.24929149e-003, 7.08215311e-003, 4.24929149e-003,
          1.41643058e-003, 2.83286115e-003, 4.24929149e-003,
          5.66572230e-003, 4.24929149e-003, 0., 2.83286115e-003,
          1.41643058e-003, 2.83286115e-003, 7.08215311e-003,
          2.83286115e-003, 5.66572230e-003, 1.69971660e-002,
          2.83286115e-003, 4.24929149e-003, 5.66572230e-003,
          1.41643058e-003, 1.41643058e-003, 2.83286115e-003,
          7.08215311e-003, 5.66572230e-003, 9.91501380e-003,
          4.24929149e-003, 0., 4.24929149e-003, 5.66572230e-003,
          7.08215311e-003, 1.41643058e-003, 5.66572230e-003,
          2.83286115e-003, 2.83286115e-003, 4.24929149e-003,
          5.66572230e-003, 2.83286115e-003, 7.08215311e-003,
          7.08215311e-003, 0., 4.24929149e-003, 1.13314446e-002,
          4.24929149e-003, 2.83286115e-003, 9.91501380e-003,
          1.41643062e-002, 5.66572230e-003, 1.41643058e-003,
          4.24929149e-003, 2.83286115e-003, 5.66572230e-003,
          7.08215311e-003, 4.24929149e-003, 2.83286115e-003,
          5.66572230e-003, 2.83286115e-003, 4.24929149e-003,
          8.49858299e-003, 2.83286115e-003, 4.24929149e-003,
          1.41643058e-003, 0., 1.13314446e-002, 5.66572230e-003,
          7.08215311e-003, 7.08215311e-003, 5.66572230e-003,
          5.66572230e-003, 0., 4.24929149e-003, 7.08215311e-003, 0.,
          8.49858299e-003, 2.83286115e-003, 2.83286115e-003,
          5.66572230e-003, 5.66572230e-003, 0., 1.41643058e-003,
          5.66572230e-003, 1.41643058e-003, 5.66572230e-003,
          5.66572230e-003, 2.83286115e-003, 5.66572230e-003,
          1.41643058e-003, 9.91501380e-003, 9.91501380e-003,
          2.83286115e-003, 1.41643058e-003, 1.13314446e-002,
          5.66572230e-003, 4.24929149e-003, 1.41643058e-003,
          2.83286115e-003, 5.66572230e-003, 4.24929149e-003,
          2.83286115e-003, 5.66572230e-003, 9.91501380e-003,
          4.24929149e-003, 1.41643058e-003, 8.49858299e-003,
          5.66572230e-003, 0., 1.41643058e-003, 9.91501380e-003,
          4.24929149e-003, 4.24929149e-003, 8.49858299e-003,
          8.49858299e-003, 4.24929149e-003, 5.66572230e-003,
          1.41643058e-003, 9.91501380e-003, 8.49858299e-003,
          2.83286115e-003, 7.08215311e-003, 2.83286115e-003,
          9.91501380e-003, 5.66572230e-003, 5.66572230e-003,
          4.24929149e-003, 1.41643058e-003, 5.66572230e-003,
          1.41643058e-003, 2.83286115e-003, 5.66572230e-003,
          4.24929149e-003, 5.66572230e-003, 4.24929149e-003,
          1.41643058e-003, 2.83286115e-003, 4.24929149e-003,
          5.66572230e-003, 9.91501380e-003, 7.08215311e-003,
          1.41643058e-003, 5.66572230e-003, 5.66572230e-003,
          5.66572230e-003, 9.91501380e-003, 0., 4.24929149e-003, 0.,
          1.27478754e-002, 5.66572230e-003, 7.08215311e-003,
          4.24929149e-003, 9.91501380e-003, 4.24929149e-003,
          1.41643058e-003, 1.41643058e-003, 7.08215311e-003,
          5.66572230e-003, 1.41643058e-003, 1.13314446e-002,
          1.41643058e-003, 4.24929149e-003, 5.66572230e-003,
          5.66572230e-003, 4.24929149e-003, 1.41643058e-003, 0.,
          9.91501380e-003, 4.24929149e-003, 2.83286115e-003,
          4.24929149e-003, 4.24929149e-003, 5.66572230e-003,
          9.91501380e-003, 5.66572230e-003, 7.08215311e-003,
          2.83286115e-003, 2.83286115e-003, 2.83286115e-003,
          5.66572230e-003, 1.41643058e-003, 8.49858299e-003, 0.,
          4.24929149e-003, 7.08215311e-003, 5.66572230e-003,
          5.66572230e-003, 2.83286115e-003, 5.66572230e-003,
          1.41643062e-002, 9.91501380e-003, 1.84135977e-002,
          5.66572230e-003, 4.24929149e-003, 8.49858299e-003,
          4.24929149e-003, 5.66572230e-003, 8.49858299e-003,
          1.41643058e-003, 9.91501380e-003, 4.24929149e-003,
          4.24929149e-003, 4.24929149e-003 ]
      - [ 3.55871883e-003, 7.11743766e-003, 8.89679696e-003,
          1.77935942e-003, 7.11743766e-003, 8.89679696e-003,
          1.77935942e-003, 7.11743766e-003, 0., 5.33807836e-003,
          1.77935942e-003, 0., 5.33807836e-003, 1.06761567e-002, 0.,
          1.77935939e-002, 7.11743766e-003, 1.77935942e-003,
          1.77935942e-003, 0., 3.55871883e-003, 8.89679696e-003, 0.,
          7.11743766e-003, 1.77935942e-003, 1.77935942e-003,
          8.89679696e-003, 8.89679696e-003, 1.77935942e-003,
          5.33807836e-003, 5.33807836e-003, 1.06761567e-002,
          3.55871883e-003, 5.33807836e-003, 7.11743766e-003,
          8.89679696e-003, 7.11743766e-003, 1.77935942e-003, 0., 0.,
          3.55871883e-003, 1.77935942e-003, 8.89679696e-003,
          3.55871883e-003, 0., 5.33807836e-003, 5.33807836e-003,
          1.77935942e-003, 3.55871883e-003, 5.33807836e-003,
          3.55871883e-003, 8.89679696e-003, 7.11743766e-003,
          3.55871883e-003, 3.55871883e-003, 7.11743766e-003,
          1.77935942e-003, 1.24555156e-002, 1.77935942e-003,
          5.33807836e-003, 3.55871883e-003, 3.55871883e-003,
          5.33807836e-003, 0., 5.33807836e-003, 7.11743766e-003, 0.,
          3.55871883e-003, 8.89679696e-003, 1.77935942e-003,
          3.55871883e-003, 5.33807836e-003, 1.06761567e-002,
          1.06761567e-002, 1.06761567e-002, 5.33807836e-003,
          3.55871883e-003, 0., 0., 3.55871883e-003, 1.77935942e-003,
          1.77935942e-003, 1.77935942e-003, 7.11743766e-003,
          7.11743766e-003, 5.33807836e-003, 1.24555156e-002,
          1.77935942e-003, 1.42348753e-002, 1.06761567e-002,
          1.06761567e-002, 0., 5.33807836e-003, 5.33807836e-003,
          8.89679696e-003, 1.77935942e-003, 3.55871883e-003,
          8.89679696e-003, 0., 7.11743766e-003, 0., 5.33807836e-003,
          7.11743766e-003, 7.11743766e-003, 5.33807836e-003,
          3.55871883e-003, 1.06761567e-002, 0., 0., 7.11743766e-003,
          8.89679696e-003, 8.89679696e-003, 1.77935942e-003,
          5.33807836e-003, 8.89679696e-003, 8.89679696e-003,
          5.33807836e-003, 3.55871883e-003, 3.55871883e-003,
          3.55871883e-003, 5.33807836e-003, 1.95729528e-002,
          7.11743766e-003, 1.77935942e-003, 5.33807836e-003,
          1.77935942e-003, 3.55871883e-003, 8.89679696e-003,
          1.06761567e-002, 1.77935942e-003, 3.55871883e-003,
          5.33807836e-003, 3.55871883e-003, 3.55871883e-003,
          1.77935942e-003, 8.89679696e-003, 1.77935942e-003,
          3.55871883e-003, 5.33807836e-003, 5.33807836e-003,
          7.11743766e-003, 1.77935942e-003, 1.77935942e-003,
          3.55871883e-003, 0., 1.42348753e-002, 5.33807836e-003,
          1.77935942e-003, 3.55871883e-003, 3.55871883e-003, 0.,
          1.77935942e-003, 3.55871883e-003, 3.55871883e-003,
          1.77935942e-003, 1.77935942e-003, 5.33807836e-003,
          3.55871883e-003, 1.06761567e-002, 3.55871883e-003,
          1.77935942e-003, 5.33807836e-003, 7.11743766e-003,
          8.89679696e-003, 1.77935942e-003, 3.55871883e-003,
          3.55871883e-003, 5.33807836e-003, 5.33807836e-003,
          3.55871883e-003, 5.33807836e-003, 1.77935942e-003,
          3.55871883e-003, 7.11743766e-003, 5.33807836e-003,
          7.11743766e-003, 3.55871883e-003, 3.55871883e-003,
          1.77935942e-003, 1.77935942e-003, 3.55871883e-003,
          5.33807836e-003, 1.77935942e-003, 5.33807836e-003,
          1.06761567e-002, 8.89679696e-003, 8.89679696e-003,
          8.89679696e-003, 5.33807836e-003, 1.77935942e-003,
          3.55871883e-003, 5.33807836e-003, 7.11743766e-003, 0.,
          1.42348753e-002, 8.89679696e-003, 7.11743766e-003,
          3.55871883e-003, 3.55871883e-003, 8.89679696e-003 ]
      - [ 0., 2.23713648e-003, 8.94854590e-003, 8.94854590e-003,
          2.01342292e-002, 1.11856824e-002, 2.23713648e-003, 0., 0.,
          2.23713648e-003, 2.23713648e-003, 2.23713648e-003,
          2.23713648e-003, 2.23713648e-003, 2.23713648e-003,
          1.11856824e-002, 1.34228189e-002, 8.94854590e-003, 0.,
          6.71140943e-003, 8.94854590e-003, 2.23713648e-003,
          8.94854590e-003, 2.23713648e-003, 1.11856824e-002,
          4.47427295e-003, 2.23713648e-003, 4.47427295e-003,
          4.47427295e-003, 2.23713648e-003, 2.23713648e-003,
          2.23713648e-003, 2.23713648e-003, 1.11856824e-002,
          2.23713648e-003, 6.71140943e-003, 4.47427295e-003,
          2.23713648e-003, 2.23713648e-003, 4.47427295e-003,
          2.23713648e-003, 2.23713648e-003, 0., 6.71140943e-003,
          4.47427295e-003, 2.23713648e-003, 1.78970918e-002, 0.,
          6.71140943e-003, 6.71140943e-003, 6.71140943e-003,
          2.23713648e-003, 4.47427295e-003, 0., 2.23713648e-003,
          2.23713648e-003, 2.23713648e-003, 2.23713648e-003, 0., 0.,
          2.23713648e-003, 2.23713648e-003, 0., 1.11856824e-002,
          4.47427295e-003, 2.23713648e-003, 0., 6.71140943e-003,
          8.94854590e-003, 4.47427295e-003, 6.71140943e-003,
          4.47427295e-003, 2.23713648e-003, 6.71140943e-003,
          8.94854590e-003, 8.94854590e-003, 1.56599544e-002, 0., 0.,
          1.11856824e-002, 2.23713648e-003, 6.71140943e-003,
          6.71140943e-003, 1.11856824e-002, 0., 0., 4.47427295e-003,
          8.94854590e-003, 1.11856824e-002, 0., 1.11856824e-002,
          2.23713648e-003, 6.71140943e-003, 0., 6.71140943e-003, 0.,
          4.47427295e-003, 2.23713648e-003, 2.23713648e-003,
          4.47427295e-003, 2.23713648e-003, 4.47427295e-003,
          4.47427295e-003, 4.47427295e-003, 8.94854590e-003,
          2.23713648e-003, 2.23713648e-003, 4.47427295e-003,
          6.71140943e-003, 1.78970918e-002, 4.47427295e-003,
          4.47427295e-003, 6.71140943e-003, 4.47427295e-003,
          6.71140943e-003, 1.11856824e-002, 0., 8.94854590e-003,
          6.71140943e-003, 4.47427295e-003, 6.71140943e-003,
          8.94854590e-003, 4.47427295e-003, 4.47427295e-003,
          4.47427295e-003, 0., 2.23713648e-003, 2.23713648e-003,
          6.71140943e-003, 8.94854590e-003, 2.23713648e-003, 0.,
          4.47427295e-003, 8.94854590e-003, 4.47427295e-003,
          8.94854590e-003, 1.11856824e-002, 4.47427295e-003,
          1.78970918e-002, 2.23713648e-003, 4.47427295e-003, 0.,
          4.47427295e-003, 0., 8.94854590e-003, 1.56599544e-002,
          2.23713648e-003, 6.71140943e-003, 6.71140943e-003, 0.,
          6.71140943e-003, 2.23713648e-003, 8.94854590e-003, 0.,
          6.71140943e-003, 2.23713648e-003, 4.47427295e-003,
          6.71140943e-003, 6.71140943e-003, 2.23713648e-003,
          1.11856824e-002, 4.47427295e-003, 6.71140943e-003,
          4.47427295e-003, 2.23713648e-003, 0., 4.47427295e-003,
          2.23713648e-003, 6.71140943e-003, 4.47427295e-003,
          1.56599544e-002, 6.71140943e-003, 4.47427295e-003,
          6.71140943e-003, 2.23713648e-003, 4.47427295e-003,
          2.23713648e-003, 4.47427295e-003, 4.47427295e-003, 0., 0.,
          1.56599544e-002, 4.47427295e-003, 8.94854590e-003, 0.,
          6.71140943e-003, 4.47427295e-003, 8.94854590e-003,
          4.47427295e-003, 8.94854590e-003, 4.47427295e-003,
          4.47427295e-003, 2.23713648e-003, 0., 1.34228189e-002,
          6.71140943e-003, 0., 2.23713648e-003, 4.47427295e-003,
          4.47427295e-003 ]
      - [ 4.54545440e-003, 2.27272720e-003, 0., 0., 0., 0., 0.,
          9.09090880e-003, 2.27272720e-003, 0., 1.59090906e-002,
          6.81818184e-003, 1.36363637e-002, 4.54545440e-003,
          4.54545440e-003, 6.81818184e-003, 4.54545440e-003,
          4.54545440e-003, 2.27272720e-003, 2.27272720e-003,
          4.54545440e-003, 4.54545440e-003, 4.54545440e-003,
          1.13636358e-002, 6.81818184e-003, 9.09090880e-003,
          4.54545440e-003, 4.54545440e-003, 4.54545440e-003, 0.,
          4.54545440e-003, 4.54545440e-003, 0., 4.54545440e-003,
          9.09090880e-003, 4.54545440e-003, 6.81818184e-003, 0.,
          1.36363637e-002, 4.54545440e-003, 4.54545440e-003,
          2.27272720e-003, 2.27272720e-003, 4.54545440e-003, 0.,
          4.54545440e-003, 2.27272720e-003, 2.27272720e-003,
          9.09090880e-003, 2.27272720e-003, 9.09090880e-003,
          2.27272720e-003, 4.54545440e-003, 6.81818184e-003,
          2.27272720e-003, 0., 0., 2.27272720e-003, 2.27272720e-003,
          4.54545440e-003, 0., 9.09090880e-003, 2.27272720e-003,
          2.27272720e-003, 0., 6.81818184e-003, 6.81818184e-003,
          2.27272720e-003, 1.13636358e-002, 2.27272720e-003,
          9.09090880e-003, 4.54545440e-003, 4.54545440e-003,
          6.81818184e-003, 4.54545440e-003, 9.09090880e-003,
          4.54545440e-003, 4.54545440e-003, 0., 6.81818184e-003, 0.,
          1.36363637e-002, 2.27272720e-003, 4.54545440e-003,
          1.13636358e-002, 0., 4.54545440e-003, 2.27272720e-003,
          6.81818184e-003, 1.13636358e-002, 2.27272720e-003, 0.,
          2.27272720e-003, 9.09090880e-003, 2.27272720e-003,
          6.81818184e-003, 2.27272720e-003, 4.54545440e-003,
          2.27272720e-003, 9.09090880e-003, 9.09090880e-003,
          6.81818184e-003, 4.54545440e-003, 2.27272720e-003,
          4.54545440e-003, 4.54545440e-003, 6.81818184e-003, 0., 0.,
          2.27272720e-003, 6.81818184e-003, 6.81818184e-003,
          1.81818176e-002, 0., 4.54545440e-003, 4.54545440e-003, 0.,
          4.54545440e-003, 2.27272720e-003, 2.27272720e-003,
          4.54545440e-003, 2.27272720e-003, 4.54545440e-003,
          1.13636358e-002, 1.36363637e-002, 2.27272720e-003,
          6.81818184e-003, 1.13636358e-002, 2.27272715e-002,
          2.27272720e-003, 2.27272720e-003, 2.27272720e-003,
          2.27272720e-003, 0., 6.81818184e-003, 4.54545440e-003,
          2.27272720e-003, 2.27272720e-003, 9.09090880e-003,
          2.27272720e-003, 4.54545440e-003, 0., 4.54545440e-003,
          4.54545440e-003, 2.27272720e-003, 2.27272720e-003,
          9.09090880e-003, 9.09090880e-003, 1.13636358e-002,
          4.54545440e-003, 9.09090880e-003, 1.13636358e-002, 0.,
          6.81818184e-003, 1.13636358e-002, 1.81818176e-002,
          2.27272720e-003, 2.27272720e-003, 4.54545440e-003, 0.,
          6.81818184e-003, 4.54545440e-003, 0., 0., 0., 0.,
          9.09090880e-003, 2.27272720e-003, 4.54545440e-003,
          2.27272720e-003, 4.54545440e-003, 6.81818184e-003,
          6.81818184e-003, 4.54545440e-003, 2.04545446e-002,
          1.13636358e-002, 2.27272720e-003, 1.13636358e-002,
          4.54545440e-003, 0., 9.09090880e-003, 4.54545440e-003,
          4.54545440e-003, 9.09090880e-003, 9.09090880e-003,
          1.59090906e-002, 0., 0., 1.13636358e-002, 4.54545440e-003,
          4.54545440e-003, 6.81818184e-003, 4.54545440e-003, 0.,
          1.13636358e-002, 6.81818184e-003, 6.81818184e-003,
          2.27272720e-003, 6.81818184e-003, 0. ]
      - [ 4.20168089e-003, 4.20168089e-003, 4.20168089e-003,
          1.47058833e-002, 0., 2.10084044e-003, 2.10084044e-003,
          2.10084044e-003, 2.10084044e-003, 6.30252156e-003,
          8.40336177e-003, 6.30252156e-003, 4.20168089e-003, 0.,
          2.10084044e-003, 1.26050431e-002, 4.20168089e-003,
          6.30252156e-003, 2.10084044e-003, 8.40336177e-003,
          6.30252156e-003, 6.30252156e-003, 6.30252156e-003,
          1.05042020e-002, 6.30252156e-003, 2.10084044e-003,
          6.30252156e-003, 4.20168089e-003, 4.20168089e-003,
          4.20168089e-003, 4.20168089e-003, 1.26050431e-002,
          4.20168089e-003, 4.20168089e-003, 1.26050431e-002,
          6.30252156e-003, 0., 0., 4.20168089e-003, 2.10084044e-003,
          4.20168089e-003, 1.05042020e-002, 2.10084044e-003,
          2.10084044e-003, 4.20168089e-003, 2.10084044e-003,
          2.10084044e-003, 2.10084044e-003, 6.30252156e-003,
          2.10084044e-003, 8.40336177e-003, 0., 2.10084044e-003,
          2.10084044e-003, 2.10084044e-003, 2.10084044e-003,
          2.10084044e-003, 8.40336177e-003, 0., 1.05042020e-002,
          8.40336177e-003, 8.40336177e-003, 4.20168089e-003,
          8.40336177e-003, 2.10084044e-003, 2.10084044e-003,
          6.30252156e-003, 4.20168089e-003, 1.05042020e-002,
          8.40336177e-003, 8.40336177e-003, 8.40336177e-003,
          2.10084044e-003, 1.47058833e-002, 1.05042020e-002,
          8.40336177e-003, 0., 2.10084044e-003, 4.20168089e-003,
          4.20168089e-003, 0., 6.30252156e-003, 2.10084044e-003,
          8.40336177e-003, 2.10084044e-003, 0., 4.20168089e-003,
          6.30252156e-003, 8.40336177e-003, 4.20168089e-003,
          6.30252156e-003, 4.20168089e-003, 1.26050431e-002, 0.,
          2.10084044e-003, 4.20168089e-003, 2.10084044e-003,
          8.40336177e-003, 4.20168089e-003, 0., 6.30252156e-003,
          1.05042020e-002, 2.10084044e-003, 2.10084044e-003, 0., 0.,
          2.10084044e-003, 0., 2.10084044e-003, 1.05042020e-002, 0.,
          6.30252156e-003, 0., 8.40336177e-003, 8.40336177e-003,
          6.30252156e-003, 2.10084044e-003, 4.20168089e-003,
          6.30252156e-003, 4.20168089e-003, 2.10084044e-003,
          1.26050431e-002, 6.30252156e-003, 4.20168089e-003,
          8.40336177e-003, 4.20168089e-003, 4.20168089e-003,
          1.05042020e-002, 6.30252156e-003, 2.10084044e-003,
          4.20168089e-003, 2.10084044e-003, 6.30252156e-003,
          6.30252156e-003, 6.30252156e-003, 4.20168089e-003,
          6.30252156e-003, 0., 2.10084044e-003, 4.20168089e-003, 0.,
          2.10084044e-003, 6.30252156e-003, 6.30252156e-003,
          2.10084044e-003, 2.10084044e-003, 1.26050431e-002, 0.,
          4.20168089e-003, 4.20168089e-003, 6.30252156e-003,
          2.10084044e-003, 8.40336177e-003, 4.20168089e-003,
          4.20168089e-003, 6.30252156e-003, 8.40336177e-003,
          4.20168089e-003, 0., 2.10084044e-003, 2.10084044e-003,
          2.10084044e-003, 4.20168089e-003, 6.30252156e-003,
          4.20168089e-003, 0., 6.30252156e-003, 1.05042020e-002,
          4.20168089e-003, 4.20168089e-003, 1.26050431e-002,
          4.20168089e-003, 4.20168089e-003, 8.40336177e-003,
          2.10084044e-003, 4.20168089e-003, 4.20168089e-003,
          2.10084040e-002, 2.10084044e-003, 2.10084044e-003,
          6.30252156e-003, 8.40336177e-003, 6.30252156e-003,
          2.10084044e-003, 1.26050431e-002, 4.20168089e-003,
          8.40336177e-003, 4.20168089e-003, 8.40336177e-003,
          6.30252156e-003, 0., 0., 0., 8.40336177e-003, 8.40336177e-003,
          2.10084040e-002, 8.40336177e-003, 1.05042020e-002, 0.,
          4.20168089e-003 ]
      - [ 9.94318165e-003, 9.94318165e-003, 4.26136376e-003,
          2.84090918e-003, 9.94318165e-003, 8.52272753e-003,
          4.26136376e-003, 8.52272753e-003, 8.52272753e-003,
          9.94318165e-003, 7.10227294e-003, 2.84090918e-003,
          5.68181835e-003, 2.84090918e-003, 7.10227294e-003,
          5.68181835e-003, 2.84090918e-003, 1.42045459e-003,
          2.84090918e-003, 5.68181835e-003, 4.26136376e-003,
          1.42045459e-003, 1.42045459e-003, 5.68181835e-003,
          9.94318165e-003, 8.52272753e-003, 1.42045459e-003,
          2.84090918e-003, 4.26136376e-003, 1.42045459e-003,
          4.26136376e-003, 7.10227294e-003, 7.10227294e-003,
          5.68181835e-003, 8.52272753e-003, 9.94318165e-003,
          5.68181835e-003, 4.26136376e-003, 2.84090918e-003,
          5.68181835e-003, 2.84090918e-003, 5.68181835e-003,
          8.52272753e-003, 4.26136376e-003, 0., 7.10227294e-003,
          9.94318165e-003, 2.84090918e-003, 7.10227294e-003,
          4.26136376e-003, 1.42045459e-003, 2.84090918e-003,
          2.84090918e-003, 0., 2.84090918e-003, 5.68181835e-003,
          2.84090918e-003, 2.84090918e-003, 1.42045459e-003,
          1.42045459e-003, 2.84090918e-003, 1.42045459e-003, 0.,
          4.26136376e-003, 5.68181835e-003, 5.68181835e-003,
          4.26136376e-003, 1.42045459e-003, 2.84090918e-003, 0.,
          2.84090918e-003, 1.42045459e-003, 4.26136376e-003,
          2.84090918e-003, 8.52272753e-003, 0., 1.42045459e-003,
          2.84090918e-003, 4.26136376e-003, 2.84090918e-003,
          5.68181835e-003, 2.84090918e-003, 1.13636367e-002,
          8.52272753e-003, 4.26136376e-003, 8.52272753e-003,
          4.26136376e-003, 1.42045459e-003, 9.94318165e-003,
          1.42045459e-003, 7.10227294e-003, 5.68181835e-003, 0.,
          2.84090918e-003, 2.84090918e-003, 1.42045459e-003,
          4.26136376e-003, 7.10227294e-003, 5.68181835e-003,
          2.84090918e-003, 2.84090918e-003, 4.26136376e-003,
          1.13636367e-002, 0., 5.68181835e-003, 2.84090918e-003,
          5.68181835e-003, 4.26136376e-003, 7.10227294e-003,
          2.84090918e-003, 2.84090918e-003, 4.26136376e-003,
          5.68181835e-003, 2.84090918e-003, 7.10227294e-003,
          2.84090918e-003, 5.68181835e-003, 7.10227294e-003,
          5.68181835e-003, 7.10227294e-003, 7.10227294e-003,
          1.42045459e-003, 4.26136376e-003, 2.84090918e-003,
          4.26136376e-003, 7.10227294e-003, 2.84090918e-003,
          9.94318165e-003, 5.68181835e-003, 5.68181835e-003,
          5.68181835e-003, 8.52272753e-003, 0., 7.10227294e-003,
          8.52272753e-003, 1.27840918e-002, 9.94318165e-003,
          1.13636367e-002, 7.10227294e-003, 1.13636367e-002,
          2.84090918e-003, 1.42045459e-003, 1.42045459e-003,
          2.84090918e-003, 1.42045459e-003, 8.52272753e-003,
          2.84090918e-003, 5.68181835e-003, 4.26136376e-003,
          1.42045459e-003, 9.94318165e-003, 2.84090918e-003,
          8.52272753e-003, 5.68181835e-003, 9.94318165e-003,
          9.94318165e-003, 0., 0., 2.84090918e-003, 4.26136376e-003,
          8.52272753e-003, 8.52272753e-003, 1.42045459e-003, 0.,
          7.10227294e-003, 4.26136376e-003, 4.26136376e-003,
          8.52272753e-003, 8.52272753e-003, 5.68181835e-003,
          7.10227294e-003, 7.10227294e-003, 2.84090918e-003,
          7.10227294e-003, 1.42045459e-003, 1.42045459e-003,
          4.26136376e-003, 2.84090918e-003, 9.94318165e-003,
          8.52272753e-003, 7.10227294e-003, 7.10227294e-003,
          4.26136376e-003, 4.26136376e-003, 8.52272753e-003,
          5.68181835e-003, 8.52272753e-003, 4.26136376e-003,
          1.42045459e-003, 2.84090918e-003, 5.68181835e-003,
          5.68181835e-003, 8.52272753e-003, 5.68181835e-003,
          2.84090918e-003, 5.68181835e-003, 1.13636367e-002,
          5.68181835e-003, 1.42045459e-003, 8.52272753e-003 ]
      - [ 3.23275849e-003, 6.46551698e-003, 8.62068962e-003,
          3.23275849e-003, 7.54310330e-003, 2.15517241e-003,
          2.15517241e-003, 4.31034481e-003, 2.15517241e-003,
          5.38793113e-003, 1.40086208e-002, 3.23275849e-003,
          5.38793113e-003, 3.23275849e-003, 1.07758620e-003,
          2.15517241e-003, 9.69827548e-003, 3.23275849e-003,
          4.31034481e-003, 4.31034481e-003, 4.31034481e-003,
          5.38793113e-003, 4.31034481e-003, 2.15517241e-003,
          5.38793113e-003, 3.23275849e-003, 3.23275849e-003,
          7.54310330e-003, 4.31034481e-003, 7.54310330e-003,
          6.46551698e-003, 1.07758623e-002, 8.62068962e-003,
          5.38793113e-003, 6.46551698e-003, 0., 5.38793113e-003,
          3.23275849e-003, 2.15517241e-003, 2.15517241e-003,
          6.46551698e-003, 3.23275849e-003, 4.31034481e-003,
          4.31034481e-003, 5.38793113e-003, 2.15517241e-003,
          7.54310330e-003, 4.31034481e-003, 4.31034481e-003,
          5.38793113e-003, 1.07758620e-003, 5.38793113e-003,
          1.07758620e-003, 2.15517241e-003, 1.07758620e-003,
          2.15517241e-003, 2.15517241e-003, 3.23275849e-003,
          2.15517241e-003, 3.23275849e-003, 4.31034481e-003,
          4.31034481e-003, 3.23275849e-003, 6.46551698e-003,
          5.38793113e-003, 1.07758620e-003, 7.54310330e-003,
          4.31034481e-003, 4.31034481e-003, 4.31034481e-003,
          1.07758620e-003, 6.46551698e-003, 8.62068962e-003,
          8.62068962e-003, 2.15517241e-003, 5.38793113e-003,
          3.23275849e-003, 0., 5.38793113e-003, 5.38793113e-003,
          3.23275849e-003, 4.31034481e-003, 9.69827548e-003,
          5.38793113e-003, 8.62068962e-003, 7.54310330e-003,
          9.69827548e-003, 5.38793113e-003, 5.38793113e-003,
          7.54310330e-003, 6.46551698e-003, 1.07758623e-002,
          4.31034481e-003, 3.23275849e-003, 6.46551698e-003,
          3.23275849e-003, 4.31034481e-003, 1.07758623e-002,
          4.31034481e-003, 6.46551698e-003, 1.07758620e-003,
          7.54310330e-003, 5.38793113e-003, 5.38793113e-003,
          6.46551698e-003, 0., 5.38793113e-003, 4.31034481e-003,
          9.69827548e-003, 6.46551698e-003, 4.31034481e-003,
          3.23275849e-003, 9.69827548e-003, 5.38793113e-003,
          6.46551698e-003, 5.38793113e-003, 1.07758623e-002,
          3.23275849e-003, 7.54310330e-003, 0., 4.31034481e-003,
          3.23275849e-003, 6.46551698e-003, 8.62068962e-003,
          4.31034481e-003, 2.15517241e-003, 2.15517241e-003,
          7.54310330e-003, 6.46551698e-003, 2.15517241e-003,
          3.23275849e-003, 7.54310330e-003, 1.07758620e-003,
          7.54310330e-003, 4.31034481e-003, 1.61637925e-002,
          1.07758620e-003, 0., 7.54310330e-003, 7.54310330e-003,
          3.23275849e-003, 5.38793113e-003, 2.15517241e-003,
          4.31034481e-003, 2.15517241e-003, 6.46551698e-003,
          4.31034481e-003, 3.23275849e-003, 6.46551698e-003,
          7.54310330e-003, 4.31034481e-003, 4.31034481e-003,
          5.38793113e-003, 6.46551698e-003, 3.23275849e-003,
          3.23275849e-003, 0., 4.31034481e-003, 5.38793113e-003,
          1.18534481e-002, 4.31034481e-003, 5.38793113e-003,
          4.31034481e-003, 3.23275849e-003, 5.38793113e-003, 0.,
          6.46551698e-003, 3.23275849e-003, 2.15517241e-003,
          1.07758620e-003, 5.38793113e-003, 8.62068962e-003,
          3.23275849e-003, 5.38793113e-003, 1.29310340e-002,
          5.38793113e-003, 6.46551698e-003, 3.23275849e-003,
          7.54310330e-003, 6.46551698e-003, 6.46551698e-003,
          7.54310330e-003, 5.38793113e-003, 7.54310330e-003,
          7.54310330e-003, 3.23275849e-003, 6.46551698e-003,
          3.23275849e-003, 0., 2.15517241e-003, 2.15517241e-003,
          5.38793113e-003, 1.07758620e-003, 5.38793113e-003,
          8.62068962e-003, 6.46551698e-003, 6.46551698e-003,
          1.07758623e-002, 3.23275849e-003, 1.18534481e-002 ]
      - [ 2.45700241e-003, 4.91400482e-003, 1.71990171e-002,
          9.82800964e-003, 4.91400482e-003, 0., 2.45700241e-003,
          2.45700241e-003, 1.71990171e-002, 9.82800964e-003,
          2.45700241e-003, 4.91400482e-003, 2.45700241e-003,
          1.47420149e-002, 4.91400482e-003, 2.45700241e-003,
          2.45700241e-003, 0., 9.82800964e-003, 2.45700241e-003,
          2.45700241e-003, 2.45700241e-003, 1.47420149e-002,
          4.91400482e-003, 4.91400482e-003, 4.91400482e-003, 0.,
          1.22850118e-002, 7.37100746e-003, 2.45700241e-003, 0.,
          1.47420149e-002, 7.37100746e-003, 1.22850118e-002,
          7.37100746e-003, 4.91400482e-003, 7.37100746e-003,
          2.45700241e-003, 2.45700241e-003, 7.37100746e-003,
          2.45700241e-003, 2.45700241e-003, 1.22850118e-002, 0.,
          1.22850118e-002, 2.45700241e-003, 7.37100746e-003,
          7.37100746e-003, 0., 2.45700241e-003, 0., 2.45700241e-003, 0.,
          0., 1.71990171e-002, 4.91400482e-003, 4.91400482e-003,
          7.37100746e-003, 2.45700241e-003, 2.45700241e-003,
          9.82800964e-003, 7.37100746e-003, 2.45700241e-003,
          7.37100746e-003, 2.45700241e-003, 2.45700241e-003,
          2.45700241e-003, 2.45700241e-003, 2.45700241e-003,
          9.82800964e-003, 2.45700241e-003, 4.91400482e-003,
          4.91400482e-003, 2.45700241e-003, 2.45700241e-003,
          2.45700241e-003, 2.45700241e-003, 2.45700241e-003,
          4.91400482e-003, 2.45700241e-003, 2.45700241e-003,
          1.22850118e-002, 9.82800964e-003, 4.91400482e-003,
          2.45700241e-003, 2.45700241e-003, 4.91400482e-003,
          2.45700241e-003, 0., 2.45700241e-003, 7.37100746e-003,
          2.45700241e-003, 4.91400482e-003, 4.91400482e-003,
          9.82800964e-003, 2.45700241e-003, 0., 2.45700241e-003,
          4.91400482e-003, 4.91400482e-003, 0., 2.45700241e-003,
          9.82800964e-003, 0., 0., 1.71990171e-002, 4.91400482e-003,
          4.91400482e-003, 2.45700241e-003, 1.22850118e-002,
          9.82800964e-003, 2.45700241e-003, 0., 9.82800964e-003,
          4.91400482e-003, 0., 4.91400482e-003, 0., 9.82800964e-003,
          7.37100746e-003, 4.91400482e-003, 0., 4.91400482e-003, 0.,
          2.45700241e-003, 4.91400482e-003, 2.45700241e-003,
          4.91400482e-003, 0., 9.82800964e-003, 7.37100746e-003, 0.,
          7.37100746e-003, 7.37100746e-003, 4.91400482e-003,
          2.45700241e-003, 2.45700241e-003, 0., 2.45700241e-003, 0., 0.,
          7.37100746e-003, 1.22850118e-002, 4.91400482e-003,
          1.22850118e-002, 2.45700241e-003, 2.45700241e-003,
          7.37100746e-003, 2.45700241e-003, 1.22850118e-002,
          2.45700241e-003, 2.45700241e-003, 2.45700241e-003, 0., 0.,
          7.37100746e-003, 4.91400482e-003, 0., 4.91400482e-003,
          2.45700241e-003, 0., 7.37100746e-003, 4.91400482e-003,
          4.91400482e-003, 4.91400482e-003, 4.91400482e-003,
          4.91400482e-003, 2.45700241e-003, 1.96560193e-002,
          1.22850118e-002, 7.37100746e-003, 4.91400482e-003,
          2.45700241e-003, 0., 0., 0., 9.82800964e-003, 2.45700241e-003,
          4.91400482e-003, 9.82800964e-003, 2.45700241e-003,
          7.37100746e-003, 7.37100746e-003, 7.37100746e-003,
          2.45700241e-003, 0., 1.47420149e-002, 7.37100746e-003,
          1.22850118e-002, 7.37100746e-003, 4.91400482e-003,
          9.82800964e-003, 4.91400482e-003, 4.91400482e-003,
          4.91400482e-003, 9.82800964e-003, 0., 0., 4.91400482e-003,
          1.47420149e-002 ]
      - [ 6.43974217e-003, 9.19963140e-003, 9.19963140e-003,
          1.83992635e-003, 1.83992635e-003, 9.19963175e-004,
          7.35970540e-003, 3.67985270e-003, 1.01195946e-002,
          4.59981570e-003, 1.83992635e-003, 1.01195946e-002,
          9.19963140e-003, 5.51977893e-003, 3.67985270e-003, 0.,
          2.75988947e-003, 3.67985270e-003, 7.35970540e-003,
          1.83992635e-003, 1.83992635e-003, 3.67985270e-003,
          9.19963140e-003, 2.75988947e-003, 7.35970540e-003,
          2.75988947e-003, 3.67985270e-003, 8.27966817e-003,
          5.51977893e-003, 3.67985270e-003, 2.75988947e-003,
          5.51977893e-003, 9.19963140e-003, 3.67985270e-003,
          1.19595211e-002, 6.43974217e-003, 6.43974217e-003,
          1.83992635e-003, 5.51977893e-003, 1.01195946e-002,
          8.27966817e-003, 1.28794843e-002, 9.19963140e-003,
          2.75988947e-003, 9.19963175e-004, 9.19963175e-004,
          3.67985270e-003, 3.67985270e-003, 1.28794843e-002, 0.,
          5.51977893e-003, 3.67985270e-003, 9.19963175e-004, 0.,
          6.43974217e-003, 1.83992635e-003, 2.75988947e-003, 0.,
          3.67985270e-003, 4.59981570e-003, 4.59981570e-003,
          7.35970540e-003, 0., 5.51977893e-003, 6.43974217e-003,
          3.67985270e-003, 3.67985270e-003, 1.01195946e-002,
          4.59981570e-003, 4.59981570e-003, 3.67985270e-003,
          5.51977893e-003, 5.51977893e-003, 4.59981570e-003,
          9.19963175e-004, 1.83992635e-003, 3.67985270e-003,
          3.67985270e-003, 3.67985270e-003, 5.51977893e-003,
          1.83992635e-003, 2.75988947e-003, 4.59981570e-003,
          3.67985270e-003, 1.01195946e-002, 5.51977893e-003,
          3.67985270e-003, 9.19963175e-004, 4.59981570e-003,
          4.59981570e-003, 1.10395579e-002, 1.01195946e-002,
          5.51977893e-003, 5.51977893e-003, 6.43974217e-003,
          7.35970540e-003, 5.51977893e-003, 7.35970540e-003,
          2.75988947e-003, 4.59981570e-003, 7.35970540e-003,
          1.83992635e-003, 1.83992635e-003, 3.67985270e-003,
          6.43974217e-003, 9.19963175e-004, 7.35970540e-003,
          6.43974217e-003, 6.43974217e-003, 6.43974217e-003,
          8.27966817e-003, 4.59981570e-003, 8.27966817e-003,
          4.59981570e-003, 9.19963140e-003, 8.27966817e-003,
          2.75988947e-003, 6.43974217e-003, 9.19963175e-004,
          4.59981570e-003, 3.67985270e-003, 5.51977893e-003,
          9.19963175e-004, 3.67985270e-003, 7.35970540e-003,
          9.19963175e-004, 2.75988947e-003, 2.75988947e-003,
          4.59981570e-003, 1.37994476e-002, 3.67985270e-003,
          6.43974217e-003, 9.19963175e-004, 6.43974217e-003,
          4.59981570e-003, 5.51977893e-003, 1.01195946e-002,
          6.43974217e-003, 8.27966817e-003, 5.51977893e-003,
          1.83992635e-003, 7.35970540e-003, 1.83992635e-003,
          1.28794843e-002, 3.67985270e-003, 1.83992635e-003,
          9.19963175e-004, 7.35970540e-003, 1.83992635e-003,
          9.19963175e-004, 3.67985270e-003, 5.51977893e-003,
          8.27966817e-003, 5.51977893e-003, 3.67985270e-003,
          6.43974217e-003, 3.67985270e-003, 4.59981570e-003,
          4.59981570e-003, 5.51977893e-003, 5.51977893e-003,
          4.59981570e-003, 9.19963175e-004, 3.67985270e-003,
          7.35970540e-003, 2.75988947e-003, 3.67985270e-003,
          1.83992635e-003, 4.59981570e-003, 5.51977893e-003,
          3.67985270e-003, 4.59981570e-003, 5.51977893e-003,
          7.35970540e-003, 3.67985270e-003, 6.43974217e-003,
          6.43974217e-003, 2.75988947e-003, 5.51977893e-003,
          6.43974217e-003, 2.75988947e-003, 5.51977893e-003,
          2.75988947e-003, 6.43974217e-003, 2.75988947e-003,
          1.83992635e-003, 7.35970540e-003, 6.43974217e-003,
          3.67985270e-003, 4.59981570e-003, 3.67985270e-003,
          9.19963140e-003, 1.01195946e-002, 3.67985270e-003,
          3.67985270e-003, 9.19963175e-004, 3.67985270e-003,
          5.51977893e-003, 1.47194108e-002, 9.19963140e-003 ]
      - [ 4.25531901e-003, 1.48936165e-002, 2.34042555e-002,
          2.12765951e-003, 0., 1.27659570e-002, 0., 0., 8.51063803e-003,
          1.06382975e-002, 0., 4.25531901e-003, 8.51063803e-003,
          2.12765951e-003, 2.12765951e-003, 1.48936165e-002,
          4.25531901e-003, 4.25531901e-003, 1.27659570e-002,
          4.25531901e-003, 4.25531901e-003, 4.25531901e-003,
          6.38297852e-003, 6.38297852e-003, 0., 0., 4.25531901e-003,
          6.38297852e-003, 4.25531901e-003, 0., 2.12765951e-003,
          4.25531901e-003, 6.38297852e-003, 2.12765951e-003,
          8.51063803e-003, 4.25531901e-003, 6.38297852e-003,
          2.12765951e-003, 0., 4.25531901e-003, 4.25531901e-003,
          1.06382975e-002, 0., 0., 4.25531901e-003, 1.06382975e-002,
          8.51063803e-003, 0., 4.25531901e-003, 6.38297852e-003,
          4.25531901e-003, 2.12765951e-003, 8.51063803e-003,
          4.25531901e-003, 2.12765951e-003, 6.38297852e-003,
          4.25531901e-003, 2.12765951e-003, 2.12765951e-003, 0.,
          6.38297852e-003, 6.38297852e-003, 4.25531901e-003,
          4.25531901e-003, 6.38297852e-003, 4.25531901e-003,
          2.12765951e-003, 4.25531901e-003, 1.06382975e-002,
          6.38297852e-003, 2.12765951e-003, 0., 6.38297852e-003,
          4.25531901e-003, 4.25531901e-003, 2.12765951e-003,
          2.12765951e-003, 6.38297852e-003, 1.06382975e-002,
          2.12765951e-003, 2.12765951e-003, 8.51063803e-003, 0.,
          6.38297852e-003, 2.12765951e-003, 4.25531901e-003, 0., 0.,
          1.91489346e-002, 8.51063803e-003, 1.27659570e-002,
          4.25531901e-003, 6.38297852e-003, 2.12765951e-003,
          4.25531901e-003, 4.25531901e-003, 2.12765951e-003,
          2.12765951e-003, 2.12765951e-003, 0., 2.12765951e-003,
          4.25531901e-003, 4.25531901e-003, 4.25531901e-003,
          1.06382975e-002, 4.25531901e-003, 2.12765951e-003,
          6.38297852e-003, 6.38297852e-003, 2.12765951e-003,
          2.12765951e-003, 6.38297852e-003, 4.25531901e-003,
          1.27659570e-002, 2.12765951e-003, 4.25531901e-003,
          2.12765951e-003, 8.51063803e-003, 2.12765951e-003,
          1.48936165e-002, 8.51063803e-003, 1.91489346e-002,
          8.51063803e-003, 4.25531901e-003, 2.12765951e-003,
          2.12765951e-003, 4.25531901e-003, 2.12765951e-003,
          2.12765951e-003, 4.25531901e-003, 4.25531901e-003,
          4.25531901e-003, 6.38297852e-003, 4.25531901e-003,
          6.38297852e-003, 4.25531901e-003, 0., 0., 8.51063803e-003,
          2.12765951e-003, 1.70212761e-002, 4.25531901e-003,
          4.25531901e-003, 2.12765951e-003, 6.38297852e-003,
          1.06382975e-002, 4.25531901e-003, 2.12765951e-003,
          2.12765951e-003, 4.25531901e-003, 2.12765951e-003,
          1.91489346e-002, 4.25531901e-003, 4.25531901e-003,
          6.38297852e-003, 0., 0., 6.38297852e-003, 2.12765951e-003,
          2.12765951e-003, 8.51063803e-003, 0., 0., 6.38297852e-003,
          1.06382975e-002, 2.12765951e-003, 4.25531901e-003,
          4.25531901e-003, 2.12765951e-003, 4.25531901e-003,
          2.12765951e-003, 2.12765951e-003, 0., 4.25531901e-003,
          1.27659570e-002, 2.12765951e-003, 4.25531901e-003,
          8.51063803e-003, 0., 4.25531901e-003, 0., 0., 4.25531901e-003,
          2.12765951e-003, 2.12765951e-003, 1.70212761e-002,
          1.48936165e-002, 1.27659570e-002, 6.38297852e-003,
          6.38297852e-003, 8.51063803e-003, 6.38297852e-003,
          4.25531901e-003, 6.38297852e-003, 4.25531901e-003,
          2.12765951e-003, 6.38297852e-003, 1.06382975e-002,
          8.51063803e-003, 2.12765951e-003 ]
      - [ 1.36363637e-002, 2.27272720e-003, 1.36363637e-002,
          4.54545440e-003, 4.54545440e-003, 2.27272720e-003,
          4.54545440e-003, 0., 9.09090880e-003, 2.27272720e-003,
          6.81818184e-003, 6.81818184e-003, 4.54545440e-003,
          4.54545440e-003, 2.27272720e-003, 1.36363637e-002,
          9.09090880e-003, 1.36363637e-002, 4.54545440e-003, 0.,
          2.27272720e-003, 4.54545440e-003, 0., 2.27272720e-003,
          9.09090880e-003, 4.54545440e-003, 0., 0., 4.54545440e-003, 0.,
          2.27272720e-003, 9.09090880e-003, 4.54545440e-003,
          4.54545440e-003, 6.81818184e-003, 6.81818184e-003,
          2.27272720e-003, 6.81818184e-003, 4.54545440e-003,
          6.81818184e-003, 0., 9.09090880e-003, 2.27272720e-003,
          6.81818184e-003, 0., 2.27272720e-003, 1.13636358e-002,
          4.54545440e-003, 9.09090880e-003, 2.27272720e-003,
          1.13636358e-002, 2.27272720e-003, 0., 6.81818184e-003,
          9.09090880e-003, 9.09090880e-003, 2.27272720e-003,
          2.27272720e-003, 6.81818184e-003, 6.81818184e-003, 0.,
          4.54545440e-003, 6.81818184e-003, 0., 4.54545440e-003,
          4.54545440e-003, 4.54545440e-003, 6.81818184e-003,
          2.27272720e-003, 4.54545440e-003, 2.27272720e-003,
          9.09090880e-003, 2.27272720e-003, 2.27272720e-003,
          9.09090880e-003, 1.36363637e-002, 0., 6.81818184e-003, 0.,
          4.54545440e-003, 2.27272720e-003, 4.54545440e-003,
          4.54545440e-003, 6.81818184e-003, 0., 6.81818184e-003,
          4.54545440e-003, 1.13636358e-002, 1.13636358e-002,
          6.81818184e-003, 2.27272720e-003, 6.81818184e-003,
          4.54545440e-003, 4.54545440e-003, 2.27272720e-003, 0.,
          2.27272720e-003, 2.27272720e-003, 4.54545440e-003,
          6.81818184e-003, 4.54545440e-003, 4.54545440e-003,
          6.81818184e-003, 1.36363637e-002, 0., 4.54545440e-003,
          1.36363637e-002, 2.27272720e-003, 6.81818184e-003,
          4.54545440e-003, 1.13636358e-002, 2.27272720e-003,
          4.54545440e-003, 6.81818184e-003, 6.81818184e-003,
          6.81818184e-003, 2.27272720e-003, 2.27272720e-003,
          2.27272720e-003, 4.54545440e-003, 4.54545440e-003,
          4.54545440e-003, 6.81818184e-003, 0., 9.09090880e-003,
          4.54545440e-003, 1.36363637e-002, 0., 4.54545440e-003,
          2.27272720e-003, 9.09090880e-003, 6.81818184e-003,
          6.81818184e-003, 0., 0., 6.81818184e-003, 4.54545440e-003,
          6.81818184e-003, 4.54545440e-003, 4.54545440e-003,
          9.09090880e-003, 6.81818184e-003, 2.27272720e-003,
          4.54545440e-003, 4.54545440e-003, 1.13636358e-002,
          4.54545440e-003, 2.27272720e-003, 1.13636358e-002,
          9.09090880e-003, 1.13636358e-002, 1.13636358e-002, 0.,
          4.54545440e-003, 6.81818184e-003, 0., 0., 2.27272720e-003, 0.,
          0., 4.54545440e-003, 6.81818184e-003, 6.81818184e-003,
          2.27272720e-003, 6.81818184e-003, 2.27272720e-003,
          1.13636358e-002, 2.27272720e-003, 2.27272720e-003,
          2.27272720e-003, 2.27272720e-003, 6.81818184e-003,
          2.27272720e-003, 2.27272720e-003, 4.54545440e-003,
          4.54545440e-003, 2.27272720e-003, 4.54545440e-003,
          4.54545440e-003, 6.81818184e-003, 6.81818184e-003,
          6.81818184e-003, 4.54545440e-003, 6.81818184e-003,
          9.09090880e-003, 0., 1.13636358e-002, 4.54545440e-003,
          4.54545440e-003, 4.54545440e-003, 4.54545440e-003,
          6.81818184e-003, 6.81818184e-003, 0., 4.54545440e-003,
          6.81818184e-003, 2.27272720e-003, 4.54545440e-003,
          6.81818184e-003, 2.27272720e-003 ]
      - [ 6.55021844e-003, 1.09170303e-002, 4.36681230e-003,
          1.09170303e-002, 2.18340615e-003, 2.18340615e-003,
          2.18340615e-003, 8.73362459e-003, 4.36681230e-003,
          2.18340615e-003, 6.55021844e-003, 4.36681230e-003,
          1.31004369e-002, 6.55021844e-003, 1.96506549e-002,
          6.55021844e-003, 2.18340615e-003, 8.73362459e-003,
          4.36681230e-003, 4.36681230e-003, 4.36681230e-003,
          2.18340615e-003, 4.36681230e-003, 1.52838435e-002,
          8.73362459e-003, 2.18340615e-003, 2.18340615e-003,
          4.36681230e-003, 6.55021844e-003, 2.18340615e-003,
          4.36681230e-003, 4.36681230e-003, 4.36681230e-003,
          1.09170303e-002, 2.18340615e-003, 1.74672492e-002,
          2.18340615e-003, 0., 0., 4.36681230e-003, 8.73362459e-003,
          4.36681230e-003, 4.36681230e-003, 1.09170303e-002, 0., 0.,
          4.36681230e-003, 2.18340615e-003, 1.09170303e-002,
          6.55021844e-003, 0., 6.55021844e-003, 0., 8.73362459e-003,
          6.55021844e-003, 0., 4.36681230e-003, 1.09170303e-002,
          6.55021844e-003, 6.55021844e-003, 0., 0., 2.18340615e-003,
          4.36681230e-003, 2.18340615e-003, 0., 1.09170303e-002,
          8.73362459e-003, 4.36681230e-003, 4.36681230e-003,
          1.09170303e-002, 0., 0., 8.73362459e-003, 2.18340615e-003,
          1.31004369e-002, 2.18340615e-003, 0., 4.36681230e-003,
          2.18340615e-003, 4.36681230e-003, 2.18340615e-003,
          8.73362459e-003, 1.09170303e-002, 2.18340615e-003,
          8.73362459e-003, 1.09170303e-002, 6.55021844e-003, 0.,
          6.55021844e-003, 2.18340615e-003, 6.55021844e-003, 0.,
          2.18340615e-003, 2.18340615e-003, 4.36681230e-003,
          2.18340615e-003, 8.73362459e-003, 4.36681230e-003,
          6.55021844e-003, 6.55021844e-003, 8.73362459e-003,
          6.55021844e-003, 2.18340615e-003, 1.09170303e-002, 0.,
          4.36681230e-003, 1.31004369e-002, 4.36681230e-003,
          6.55021844e-003, 6.55021844e-003, 6.55021844e-003,
          4.36681230e-003, 8.73362459e-003, 6.55021844e-003,
          1.09170303e-002, 2.18340615e-003, 8.73362459e-003,
          2.18340615e-003, 6.55021844e-003, 0., 1.09170303e-002,
          2.18340615e-003, 4.36681230e-003, 1.09170303e-002,
          4.36681230e-003, 2.18340615e-003, 0., 4.36681230e-003, 0., 0.,
          4.36681230e-003, 2.18340615e-003, 4.36681230e-003,
          6.55021844e-003, 0., 2.18340615e-003, 1.09170303e-002,
          4.36681230e-003, 2.18340615e-003, 1.52838435e-002,
          4.36681230e-003, 4.36681230e-003, 6.55021844e-003,
          2.18340615e-003, 6.55021844e-003, 4.36681230e-003,
          6.55021844e-003, 6.55021844e-003, 2.18340615e-003,
          8.73362459e-003, 8.73362459e-003, 0., 2.18340615e-003,
          2.18340615e-003, 8.73362459e-003, 2.18340615e-003,
          2.18340615e-003, 4.36681230e-003, 0., 2.18340615e-003,
          4.36681230e-003, 2.18340615e-003, 2.18340615e-003,
          4.36681230e-003, 4.36681230e-003, 4.36681230e-003,
          2.18340615e-003, 4.36681230e-003, 4.36681230e-003,
          2.18340615e-003, 6.55021844e-003, 4.36681230e-003,
          6.55021844e-003, 8.73362459e-003, 8.73362459e-003,
          4.36681230e-003, 6.55021844e-003, 0., 2.18340615e-003,
          8.73362459e-003, 8.73362459e-003, 0., 8.73362459e-003, 0.,
          8.73362459e-003, 6.55021844e-003, 8.73362459e-003,
          4.36681230e-003, 0., 2.18340615e-003, 0., 4.36681230e-003,
          2.18340615e-003, 4.36681230e-003, 8.73362459e-003,
          2.18340615e-003, 6.55021844e-003, 6.55021844e-003,
          4.36681230e-003 ]
      - [ 1.13636367e-002, 0., 2.27272734e-002, 0., 0., 8.52272753e-003,
          0., 5.68181835e-003, 0., 2.84090918e-003, 2.84090918e-003, 0.,
          5.68181835e-003, 5.68181835e-003, 5.68181835e-003,
          1.13636367e-002, 5.68181835e-003, 2.84090918e-003, 0., 0., 0.,
          1.13636367e-002, 0., 5.68181835e-003, 2.84090918e-003,
          2.84090918e-003, 0., 2.84090918e-003, 8.52272753e-003,
          5.68181835e-003, 8.52272753e-003, 8.52272753e-003,
          8.52272753e-003, 2.84090918e-003, 5.68181835e-003,
          5.68181835e-003, 0., 2.84090918e-003, 0., 0., 8.52272753e-003,
          2.84090918e-003, 0., 5.68181835e-003, 0., 8.52272753e-003,
          8.52272753e-003, 2.84090918e-003, 2.84090918e-003,
          2.84090918e-003, 2.84090918e-003, 8.52272753e-003,
          2.84090918e-003, 8.52272753e-003, 0., 2.84090918e-003, 0.,
          2.84090918e-003, 0., 0., 0., 2.84090918e-003, 2.84090918e-003,
          8.52272753e-003, 0., 1.98863633e-002, 5.68181835e-003, 0., 0.,
          2.84090918e-003, 0., 0., 1.13636367e-002, 5.68181835e-003, 0.,
          5.68181835e-003, 2.84090918e-003, 0., 2.84090918e-003,
          1.13636367e-002, 0., 2.84090918e-003, 0., 2.84090918e-003,
          5.68181835e-003, 2.84090918e-003, 2.84090918e-003,
          2.84090918e-003, 1.70454551e-002, 2.84090918e-003,
          2.84090918e-003, 5.68181835e-003, 2.84090918e-003,
          1.42045459e-002, 0., 2.84090918e-003, 2.84090918e-003,
          1.70454551e-002, 5.68181835e-003, 2.84090918e-003, 0., 0.,
          2.84090918e-003, 2.84090918e-003, 2.84090918e-003, 0.,
          2.84090918e-003, 2.84090918e-003, 2.84090918e-003,
          2.84090918e-003, 5.68181835e-003, 1.70454551e-002,
          5.68181835e-003, 1.13636367e-002, 1.13636367e-002,
          8.52272753e-003, 0., 2.84090918e-003, 0., 8.52272753e-003,
          1.13636367e-002, 2.84090918e-003, 8.52272753e-003,
          2.84090918e-003, 5.68181835e-003, 8.52272753e-003, 0.,
          8.52272753e-003, 1.13636367e-002, 2.84090918e-003, 0.,
          1.13636367e-002, 0., 1.42045459e-002, 2.84090918e-003, 0.,
          5.68181835e-003, 0., 2.84090918e-003, 2.84090918e-003,
          2.84090918e-003, 2.84090918e-003, 0., 1.13636367e-002, 0.,
          1.70454551e-002, 0., 1.13636367e-002, 8.52272753e-003,
          5.68181835e-003, 5.68181835e-003, 5.68181835e-003, 0.,
          2.84090918e-003, 2.84090918e-003, 2.84090918e-003, 0.,
          5.68181835e-003, 2.55681835e-002, 0., 5.68181835e-003,
          2.84090918e-003, 0., 5.68181835e-003, 5.68181835e-003,
          2.84090918e-003, 2.84090918e-003, 1.13636367e-002,
          2.84090918e-003, 0., 8.52272753e-003, 2.84090918e-003,
          5.68181835e-003, 0., 8.52272753e-003, 2.84090918e-003,
          5.68181835e-003, 0., 2.84090918e-003, 2.84090918e-003,
          2.84090918e-003, 1.98863633e-002, 5.68181835e-003,
          5.68181835e-003, 1.98863633e-002, 5.68181835e-003,
          8.52272753e-003, 1.42045459e-002, 1.98863633e-002,
          1.42045459e-002, 2.84090918e-003, 5.68181835e-003,
          5.68181835e-003, 1.42045459e-002, 1.70454551e-002,
          1.13636367e-002, 0., 0., 8.52272753e-003, 1.13636367e-002 ]
      - [ 4.45930893e-003, 7.80379074e-003, 3.34448181e-003,
          1.11482723e-003, 1.11482723e-003, 7.80379074e-003,
          4.45930893e-003, 4.45930893e-003, 3.34448181e-003,
          5.57413604e-003, 1.11482723e-003, 1.11482723e-003, 0.,
          2.22965446e-003, 3.34448181e-003, 8.91861785e-003,
          6.68896362e-003, 4.45930893e-003, 6.68896362e-003,
          3.34448181e-003, 8.91861785e-003, 5.57413604e-003,
          3.34448181e-003, 3.34448181e-003, 7.80379074e-003,
          7.80379074e-003, 5.57413604e-003, 3.34448181e-003,
          4.45930893e-003, 4.45930893e-003, 7.80379074e-003,
          1.00334454e-002, 6.68896362e-003, 5.57413604e-003,
          6.68896362e-003, 3.34448181e-003, 5.57413604e-003,
          2.22965446e-003, 4.45930893e-003, 7.80379074e-003,
          6.68896362e-003, 7.80379074e-003, 2.22965446e-003,
          3.34448181e-003, 3.34448181e-003, 0., 5.57413604e-003,
          5.57413604e-003, 2.22965446e-003, 4.45930893e-003,
          4.45930893e-003, 6.68896362e-003, 4.45930893e-003,
          2.22965446e-003, 4.45930893e-003, 1.22630997e-002,
          6.68896362e-003, 2.22965446e-003, 4.45930893e-003,
          5.57413604e-003, 1.11482723e-003, 6.68896362e-003,
          4.45930893e-003, 5.57413604e-003, 5.57413604e-003,
          3.34448181e-003, 2.22965446e-003, 2.22965446e-003,
          6.68896362e-003, 1.11482723e-003, 8.91861785e-003,
          4.45930893e-003, 4.45930893e-003, 2.22965446e-003,
          3.34448181e-003, 8.91861785e-003, 2.22965446e-003, 0.,
          6.68896362e-003, 4.45930893e-003, 2.22965446e-003,
          6.68896362e-003, 7.80379074e-003, 4.45930893e-003,
          2.22965446e-003, 6.68896362e-003, 1.22630997e-002,
          4.45930893e-003, 1.33779272e-002, 1.11482723e-003,
          7.80379074e-003, 4.45930893e-003, 8.91861785e-003,
          4.45930893e-003, 1.00334454e-002, 5.57413604e-003,
          3.34448181e-003, 8.91861785e-003, 1.11482723e-003,
          2.22965446e-003, 3.34448181e-003, 1.11482723e-003,
          4.45930893e-003, 1.11482723e-003, 3.34448181e-003,
          3.34448181e-003, 8.91861785e-003, 1.11482721e-002,
          6.68896362e-003, 3.34448181e-003, 2.22965446e-003,
          3.34448181e-003, 4.45930893e-003, 0., 1.22630997e-002,
          3.34448181e-003, 5.57413604e-003, 6.68896362e-003,
          5.57413604e-003, 3.34448181e-003, 5.57413604e-003,
          3.34448181e-003, 7.80379074e-003, 8.91861785e-003,
          6.68896362e-003, 3.34448181e-003, 2.22965446e-003,
          6.68896362e-003, 3.34448181e-003, 2.22965446e-003,
          3.34448181e-003, 3.34448181e-003, 0., 1.00334454e-002,
          7.80379074e-003, 3.34448181e-003, 5.57413604e-003,
          1.11482723e-003, 8.91861785e-003, 4.45930893e-003,
          6.68896362e-003, 7.80379074e-003, 7.80379074e-003,
          4.45930893e-003, 6.68896362e-003, 1.11482723e-003,
          5.57413604e-003, 3.34448181e-003, 2.22965446e-003,
          4.45930893e-003, 1.22630997e-002, 5.57413604e-003,
          1.11482721e-002, 5.57413604e-003, 5.57413604e-003,
          2.22965446e-003, 2.22965446e-003, 3.34448181e-003,
          7.80379074e-003, 7.80379074e-003, 3.34448181e-003,
          4.45930893e-003, 6.68896362e-003, 8.91861785e-003,
          6.68896362e-003, 4.45930893e-003, 3.34448181e-003,
          1.11482723e-003, 8.91861785e-003, 0., 3.34448181e-003,
          5.57413604e-003, 8.91861785e-003, 3.34448181e-003,
          3.34448181e-003, 3.34448181e-003, 5.57413604e-003,
          3.34448181e-003, 5.57413604e-003, 2.22965446e-003,
          2.22965446e-003, 1.22630997e-002, 1.22630997e-002,
          3.34448181e-003, 4.45930893e-003, 3.34448181e-003,
          2.22965446e-003, 3.34448181e-003, 4.45930893e-003,
          7.80379074e-003, 2.22965446e-003, 1.11482721e-002,
          6.68896362e-003, 4.45930893e-003, 4.45930893e-003,
          5.57413604e-003, 3.34448181e-003, 4.45930893e-003,
          6.68896362e-003, 3.34448181e-003 ]
      - [ 1.32100396e-002, 9.24702827e-003, 1.18890358e-002,
          9.24702827e-003, 5.28401602e-003, 9.24702827e-003,
          6.60501979e-003, 6.60501979e-003, 2.64200801e-003,
          2.64200801e-003, 6.60501979e-003, 2.64200801e-003,
          7.92602450e-003, 1.05680320e-002, 3.96301225e-003,
          2.64200801e-003, 5.28401602e-003, 1.32100401e-003,
          6.60501979e-003, 5.28401602e-003, 1.32100401e-003,
          1.32100401e-003, 2.64200801e-003, 6.60501979e-003,
          1.05680320e-002, 6.60501979e-003, 3.96301225e-003,
          9.24702827e-003, 1.05680320e-002, 2.64200801e-003,
          2.64200801e-003, 5.28401602e-003, 5.28401602e-003,
          2.64200801e-003, 7.92602450e-003, 9.24702827e-003,
          2.64200801e-003, 2.64200801e-003, 1.32100401e-003,
          7.92602450e-003, 3.96301225e-003, 2.64200801e-003,
          3.96301225e-003, 5.28401602e-003, 5.28401602e-003, 0.,
          1.32100401e-003, 5.28401602e-003, 1.32100401e-003,
          2.64200801e-003, 6.60501979e-003, 1.18890358e-002,
          3.96301225e-003, 7.92602450e-003, 1.05680320e-002,
          2.64200801e-003, 1.32100401e-003, 3.96301225e-003,
          3.96301225e-003, 0., 3.96301225e-003, 3.96301225e-003,
          2.64200801e-003, 0., 7.92602450e-003, 2.64200801e-003,
          5.28401602e-003, 7.92602450e-003, 7.92602450e-003,
          2.64200801e-003, 9.24702827e-003, 0., 1.32100401e-003,
          5.28401602e-003, 3.96301225e-003, 1.32100401e-003,
          6.60501979e-003, 3.96301225e-003, 6.60501979e-003,
          3.96301225e-003, 5.28401602e-003, 5.28401602e-003, 0.,
          7.92602450e-003, 5.28401602e-003, 1.32100401e-003,
          3.96301225e-003, 6.60501979e-003, 1.32100401e-003,
          6.60501979e-003, 1.32100396e-002, 1.32100401e-003, 0.,
          3.96301225e-003, 1.05680320e-002, 1.32100401e-003,
          5.28401602e-003, 9.24702827e-003, 2.64200801e-003,
          1.32100401e-003, 2.64200801e-003, 5.28401602e-003,
          1.18890358e-002, 2.64200801e-003, 5.28401602e-003,
          1.32100401e-003, 5.28401602e-003, 1.32100401e-003,
          5.28401602e-003, 2.64200801e-003, 7.92602450e-003,
          2.64200801e-003, 3.96301225e-003, 1.32100401e-003,
          9.24702827e-003, 6.60501979e-003, 5.28401602e-003,
          5.28401602e-003, 6.60501979e-003, 9.24702827e-003,
          1.18890358e-002, 2.64200801e-003, 3.96301225e-003,
          3.96301225e-003, 1.18890358e-002, 5.28401602e-003,
          6.60501979e-003, 5.28401602e-003, 7.92602450e-003,
          7.92602450e-003, 7.92602450e-003, 5.28401602e-003,
          1.32100401e-003, 2.64200801e-003, 2.64200801e-003,
          6.60501979e-003, 5.28401602e-003, 1.05680320e-002,
          9.24702827e-003, 5.28401602e-003, 6.60501979e-003,
          1.32100401e-003, 1.32100401e-003, 6.60501979e-003,
          2.64200801e-003, 9.24702827e-003, 3.96301225e-003,
          5.28401602e-003, 3.96301225e-003, 9.24702827e-003,
          5.28401602e-003, 1.32100401e-003, 6.60501979e-003,
          2.64200801e-003, 6.60501979e-003, 2.64200801e-003,
          1.32100401e-003, 6.60501979e-003, 1.32100401e-003,
          5.28401602e-003, 7.92602450e-003, 5.28401602e-003,
          2.64200801e-003, 3.96301225e-003, 1.05680320e-002,
          5.28401602e-003, 9.24702827e-003, 0., 5.28401602e-003,
          1.32100401e-003, 7.92602450e-003, 1.32100401e-003,
          3.96301225e-003, 7.92602450e-003, 0., 3.96301225e-003,
          3.96301225e-003, 1.32100401e-003, 5.28401602e-003,
          7.92602450e-003, 6.60501979e-003, 7.92602450e-003,
          3.96301225e-003, 0., 2.64200801e-003, 2.64200801e-003,
          5.28401602e-003, 1.05680320e-002, 3.96301225e-003,
          5.28401602e-003, 5.28401602e-003, 2.64200801e-003,
          1.32100401e-003, 1.05680320e-002, 2.64200801e-003,
          2.64200801e-003, 2.64200801e-003, 6.60501979e-003,
          2.64200801e-003, 6.60501979e-003 ]
      - [ 3.16455704e-003, 6.32911408e-003, 1.58227852e-003,
          1.26582282e-002, 1.26582282e-002, 1.58227852e-003,
          1.58227852e-003, 3.16455704e-003, 0., 1.58227852e-003,
          9.49367136e-003, 1.58227852e-003, 6.32911408e-003, 0.,
          4.74683568e-003, 1.58227852e-003, 3.16455704e-003, 0.,
          1.10759493e-002, 6.32911408e-003, 1.58227852e-003,
          1.42405070e-002, 3.16455704e-003, 3.16455704e-003,
          7.91139249e-003, 7.91139249e-003, 3.16455704e-003,
          6.32911408e-003, 3.16455704e-003, 1.58227852e-003, 0.,
          7.91139249e-003, 4.74683568e-003, 0., 1.42405070e-002,
          4.74683568e-003, 1.58227852e-003, 3.16455704e-003,
          3.16455704e-003, 3.16455704e-003, 1.58227852e-003,
          1.26582282e-002, 6.32911408e-003, 4.74683568e-003,
          3.16455704e-003, 1.58227852e-003, 1.10759493e-002, 0.,
          7.91139249e-003, 3.16455704e-003, 0., 4.74683568e-003,
          4.74683568e-003, 4.74683568e-003, 3.16455704e-003,
          3.16455704e-003, 1.58227852e-003, 3.16455704e-003, 0.,
          4.74683568e-003, 1.58227852e-003, 6.32911408e-003,
          6.32911408e-003, 9.49367136e-003, 4.74683568e-003,
          4.74683568e-003, 3.16455704e-003, 4.74683568e-003,
          3.16455704e-003, 0., 4.74683568e-003, 3.16455704e-003,
          7.91139249e-003, 7.91139249e-003, 1.58227852e-003,
          3.16455704e-003, 1.58227852e-003, 0., 3.16455704e-003,
          4.74683568e-003, 0., 6.32911408e-003, 4.74683568e-003,
          6.32911408e-003, 1.58227852e-003, 0., 7.91139249e-003,
          6.32911408e-003, 1.58227852e-003, 9.49367136e-003,
          6.32911408e-003, 7.91139249e-003, 3.16455704e-003,
          6.32911408e-003, 6.32911408e-003, 3.16455704e-003,
          1.58227852e-003, 1.10759493e-002, 0., 3.16455704e-003,
          3.16455704e-003, 1.26582282e-002, 1.58227852e-003,
          4.74683568e-003, 9.49367136e-003, 4.74683568e-003,
          6.32911408e-003, 0., 3.16455704e-003, 4.74683568e-003,
          3.16455704e-003, 3.16455704e-003, 4.74683568e-003,
          1.58227852e-003, 3.16455704e-003, 1.10759493e-002,
          7.91139249e-003, 3.16455704e-003, 7.91139249e-003,
          7.91139249e-003, 1.10759493e-002, 3.16455704e-003,
          3.16455704e-003, 1.10759493e-002, 1.10759493e-002,
          4.74683568e-003, 1.58227852e-003, 4.74683568e-003,
          9.49367136e-003, 7.91139249e-003, 1.58227852e-003,
          9.49367136e-003, 7.91139249e-003, 1.10759493e-002,
          3.16455704e-003, 3.16455704e-003, 7.91139249e-003, 0.,
          1.26582282e-002, 1.58227852e-003, 1.58227852e-003,
          9.49367136e-003, 0., 7.91139249e-003, 1.58227852e-003,
          1.42405070e-002, 6.32911408e-003, 1.58227852e-003,
          4.74683568e-003, 9.49367136e-003, 4.74683568e-003,
          3.16455704e-003, 9.49367136e-003, 4.74683568e-003,
          6.32911408e-003, 4.74683568e-003, 9.49367136e-003,
          3.16455704e-003, 3.16455704e-003, 6.32911408e-003,
          4.74683568e-003, 3.16455704e-003, 0., 9.49367136e-003, 0.,
          6.32911408e-003, 0., 6.32911408e-003, 0., 1.58227852e-003,
          1.58227850e-002, 3.16455704e-003, 4.74683568e-003,
          1.10759493e-002, 7.91139249e-003, 6.32911408e-003,
          3.16455704e-003, 1.58227852e-003, 6.32911408e-003,
          1.58227852e-003, 7.91139249e-003, 1.42405070e-002,
          4.74683568e-003, 9.49367136e-003, 7.91139249e-003, 0.,
          1.58227852e-003, 3.16455704e-003, 0., 4.74683568e-003,
          1.58227852e-003, 3.16455704e-003, 4.74683568e-003,
          4.74683568e-003, 1.10759493e-002, 1.26582282e-002,
          6.32911408e-003, 7.91139249e-003, 1.10759493e-002,
          4.74683568e-003 ]
      - [ 0., 2.45700241e-003, 7.37100746e-003, 2.45700241e-003,
          2.45700241e-003, 1.22850118e-002, 2.45700241e-003,
          9.82800964e-003, 1.71990171e-002, 2.45700241e-003,
          2.45700241e-003, 2.45700241e-003, 2.45700241e-003,
          1.22850118e-002, 7.37100746e-003, 7.37100746e-003,
          4.91400482e-003, 4.91400482e-003, 7.37100746e-003,
          7.37100746e-003, 7.37100746e-003, 0., 4.91400482e-003,
          4.91400482e-003, 2.45700241e-003, 2.45700241e-003,
          2.45700241e-003, 9.82800964e-003, 0., 4.91400482e-003,
          2.45700241e-003, 4.91400482e-003, 2.45700241e-003,
          2.45700241e-003, 0., 4.91400482e-003, 4.91400482e-003,
          2.45700241e-003, 2.45700241e-003, 4.91400482e-003,
          7.37100746e-003, 4.91400482e-003, 4.91400482e-003,
          7.37100746e-003, 0., 4.91400482e-003, 1.47420149e-002,
          7.37100746e-003, 2.45700241e-003, 7.37100746e-003,
          2.45700241e-003, 4.91400482e-003, 4.91400482e-003,
          4.91400482e-003, 1.47420149e-002, 4.91400482e-003,
          7.37100746e-003, 2.45700241e-003, 0., 0., 4.91400482e-003,
          4.91400482e-003, 7.37100746e-003, 1.47420149e-002,
          2.45700241e-003, 2.45700241e-003, 0., 4.91400482e-003, 0.,
          4.91400482e-003, 7.37100746e-003, 7.37100746e-003, 0.,
          7.37100746e-003, 2.45700241e-003, 4.91400482e-003,
          4.91400482e-003, 0., 7.37100746e-003, 2.45700241e-003, 0., 0.,
          1.96560193e-002, 4.91400482e-003, 7.37100746e-003,
          2.45700241e-003, 7.37100746e-003, 0., 0., 1.47420149e-002,
          4.91400482e-003, 0., 4.91400482e-003, 2.45700241e-003,
          2.45700241e-003, 2.45700241e-003, 4.91400482e-003,
          4.91400482e-003, 4.91400482e-003, 7.37100746e-003,
          4.91400482e-003, 4.91400482e-003, 7.37100746e-003,
          9.82800964e-003, 7.37100746e-003, 2.45700241e-003,
          2.45700241e-003, 0., 1.22850118e-002, 7.37100746e-003,
          2.45700241e-003, 0., 9.82800964e-003, 2.45700241e-003,
          4.91400482e-003, 0., 2.45700241e-003, 0., 0., 7.37100746e-003,
          2.45700241e-003, 2.45700241e-003, 1.22850118e-002,
          2.45700241e-003, 1.47420149e-002, 0., 1.22850118e-002,
          9.82800964e-003, 2.45700241e-003, 2.45700241e-003,
          2.45700241e-003, 4.91400482e-003, 9.82800964e-003,
          4.91400482e-003, 4.91400482e-003, 4.91400482e-003,
          2.45700241e-003, 4.91400482e-003, 2.45700241e-003,
          2.45700241e-003, 1.22850118e-002, 9.82800964e-003,
          4.91400482e-003, 7.37100746e-003, 2.45700241e-003,
          2.70270258e-002, 7.37100746e-003, 0., 7.37100746e-003,
          2.45700241e-003, 9.82800964e-003, 9.82800964e-003,
          4.91400482e-003, 7.37100746e-003, 4.91400482e-003,
          4.91400482e-003, 4.91400482e-003, 2.45700241e-003,
          2.45700241e-003, 2.45700241e-003, 4.91400482e-003,
          2.45700241e-003, 2.45700241e-003, 0., 4.91400482e-003, 0.,
          4.91400482e-003, 0., 7.37100746e-003, 4.91400482e-003,
          7.37100746e-003, 2.45700241e-003, 2.45700241e-003,
          1.22850118e-002, 2.45700241e-003, 7.37100746e-003,
          9.82800964e-003, 4.91400482e-003, 7.37100746e-003, 0.,
          9.82800964e-003, 1.22850118e-002, 7.37100746e-003,
          2.45700241e-003, 4.91400482e-003, 2.45700241e-003, 0.,
          9.82800964e-003, 2.45700241e-003, 7.37100746e-003,
          1.22850118e-002, 0., 2.45700241e-003, 2.45700241e-003,
          4.91400482e-003, 4.91400482e-003, 2.45700241e-003,
          2.45700241e-003, 7.37100746e-003, 0. ]
      - [ 5.91715984e-003, 0., 3.94477323e-003, 0., 0., 1.97238661e-003,
          3.94477323e-003, 5.91715984e-003, 1.18343197e-002, 0.,
          5.91715984e-003, 5.91715984e-003, 1.18343197e-002, 0.,
          1.77514795e-002, 1.97238661e-002, 7.88954645e-003,
          1.97238661e-003, 5.91715984e-003, 5.91715984e-003,
          3.94477323e-003, 3.94477323e-003, 1.97238661e-003, 0.,
          7.88954645e-003, 0., 1.97238661e-003, 5.91715984e-003,
          3.94477323e-003, 5.91715984e-003, 1.97238661e-003,
          3.94477323e-003, 1.97238661e-003, 1.18343197e-002,
          5.91715984e-003, 1.97238661e-003, 1.97238661e-003,
          1.97238661e-003, 3.94477323e-003, 0., 3.94477323e-003,
          1.57790929e-002, 9.86193307e-003, 0., 1.97238661e-003, 0., 0.,
          3.94477323e-003, 5.91715984e-003, 1.97238661e-003,
          1.18343197e-002, 5.91715984e-003, 5.91715984e-003,
          1.97238661e-003, 1.97238661e-003, 5.91715984e-003,
          1.18343197e-002, 3.94477323e-003, 7.88954645e-003, 0.,
          3.94477323e-003, 3.94477323e-003, 7.88954645e-003,
          3.94477323e-003, 3.94477323e-003, 1.97238661e-003,
          3.94477323e-003, 1.97238661e-003, 3.94477323e-003, 0.,
          3.94477323e-003, 5.91715984e-003, 7.88954645e-003,
          3.94477323e-003, 1.18343197e-002, 1.18343197e-002,
          7.88954645e-003, 5.91715984e-003, 9.86193307e-003,
          1.97238661e-003, 0., 3.94477323e-003, 1.97238661e-003,
          1.97238661e-003, 5.91715984e-003, 9.86193307e-003,
          1.97238661e-003, 3.94477323e-003, 9.86193307e-003,
          9.86193307e-003, 5.91715984e-003, 5.91715984e-003,
          5.91715984e-003, 3.94477323e-003, 9.86193307e-003,
          1.97238661e-003, 5.91715984e-003, 2.16962527e-002,
          1.97238661e-003, 1.97238661e-003, 1.97238661e-003,
          7.88954645e-003, 9.86193307e-003, 7.88954645e-003,
          1.97238661e-003, 1.97238661e-003, 0., 1.97238661e-003,
          1.97238661e-003, 1.57790929e-002, 0., 5.91715984e-003,
          5.91715984e-003, 5.91715984e-003, 3.94477323e-003,
          1.97238661e-003, 5.91715984e-003, 1.97238661e-003,
          5.91715984e-003, 5.91715984e-003, 3.94477323e-003,
          1.18343197e-002, 3.94477323e-003, 3.94477323e-003,
          5.91715984e-003, 5.91715984e-003, 5.91715984e-003,
          1.97238661e-003, 3.94477323e-003, 0., 1.97238661e-003,
          1.97238661e-003, 1.97238661e-003, 0., 3.94477323e-003,
          5.91715984e-003, 3.94477323e-003, 3.74753475e-002,
          1.97238661e-003, 3.94477323e-003, 3.94477323e-003,
          1.97238661e-003, 5.91715984e-003, 5.91715984e-003,
          1.97238661e-003, 1.77514795e-002, 1.97238661e-003,
          5.91715984e-003, 1.97238661e-003, 7.88954645e-003,
          1.18343197e-002, 1.38067063e-002, 0., 1.97238661e-003,
          9.86193307e-003, 1.97238661e-003, 3.94477323e-003, 0.,
          1.97238661e-003, 0., 1.97238661e-003, 5.91715984e-003,
          1.97238661e-003, 3.94477323e-003, 1.97238661e-003,
          1.97238661e-003, 0., 0., 1.97238661e-003, 1.57790929e-002,
          9.86193307e-003, 3.94477323e-003, 5.91715984e-003,
          1.97238661e-003, 7.88954645e-003, 5.91715984e-003,
          1.97238661e-003, 5.91715984e-003, 3.94477323e-003,
          3.94477323e-003, 5.91715984e-003, 3.94477323e-003,
          3.94477323e-003, 1.97238661e-003, 5.91715984e-003,
          5.91715984e-003, 1.97238661e-003, 9.86193307e-003,
          3.94477323e-003, 3.94477323e-003, 3.94477323e-003,
          7.88954645e-003, 9.86193307e-003, 7.88954645e-003,
          9.86193307e-003, 0., 1.97238661e-003, 0., 5.91715984e-003,
          3.94477323e-003 ]
      - [ 5.66893443e-003, 3.40136047e-003, 5.66893443e-003,
          4.53514745e-003, 6.80272095e-003, 0., 1.13378686e-003,
          4.53514745e-003, 1.13378686e-003, 4.53514745e-003,
          7.93650839e-003, 2.26757373e-003, 2.26757373e-003,
          2.26757373e-003, 2.26757373e-003, 2.26757373e-003,
          9.07029491e-003, 1.13378686e-003, 4.53514745e-003,
          3.40136047e-003, 5.66893443e-003, 5.66893443e-003,
          1.13378686e-003, 1.13378686e-003, 1.13378686e-003,
          4.53514745e-003, 1.13378686e-003, 2.26757373e-003,
          2.26757373e-003, 7.93650839e-003, 6.80272095e-003,
          9.07029491e-003, 3.40136047e-003, 3.40136047e-003,
          1.02040814e-002, 6.80272095e-003, 2.26757373e-003,
          9.07029491e-003, 2.26757373e-003, 3.40136047e-003,
          7.93650839e-003, 7.93650839e-003, 5.66893443e-003,
          9.07029491e-003, 5.66893443e-003, 1.13378686e-003,
          9.07029491e-003, 3.40136047e-003, 3.40136047e-003,
          7.93650839e-003, 1.13378686e-003, 2.26757373e-003,
          1.13378689e-002, 5.66893443e-003, 0., 1.13378686e-003,
          2.26757373e-003, 6.80272095e-003, 1.13378686e-003,
          5.66893443e-003, 2.26757373e-003, 1.13378689e-002,
          3.40136047e-003, 5.66893443e-003, 2.26757373e-003,
          3.40136047e-003, 4.53514745e-003, 7.93650839e-003, 0.,
          1.13378686e-003, 6.80272095e-003, 3.40136047e-003,
          2.26757373e-003, 1.13378689e-002, 3.40136047e-003,
          6.80272095e-003, 6.80272095e-003, 2.26757373e-003,
          4.53514745e-003, 3.40136047e-003, 2.26757373e-003,
          5.66893443e-003, 0., 6.80272095e-003, 4.53514745e-003,
          3.40136047e-003, 3.40136047e-003, 5.66893443e-003,
          5.66893443e-003, 1.58730168e-002, 6.80272095e-003,
          5.66893443e-003, 0., 2.26757373e-003, 3.40136047e-003,
          7.93650839e-003, 3.40136047e-003, 7.93650839e-003,
          3.40136047e-003, 5.66893443e-003, 4.53514745e-003,
          4.53514745e-003, 5.66893443e-003, 6.80272095e-003,
          3.40136047e-003, 2.26757373e-003, 5.66893443e-003,
          7.93650839e-003, 0., 2.26757373e-003, 9.07029491e-003,
          6.80272095e-003, 6.80272095e-003, 3.40136047e-003,
          1.24716554e-002, 1.24716554e-002, 2.26757373e-003,
          4.53514745e-003, 4.53514745e-003, 2.26757373e-003,
          4.53514745e-003, 3.40136047e-003, 3.40136047e-003,
          5.66893443e-003, 7.93650839e-003, 3.40136047e-003,
          1.13378686e-003, 3.40136047e-003, 7.93650839e-003,
          4.53514745e-003, 9.07029491e-003, 9.07029491e-003,
          1.02040814e-002, 1.24716554e-002, 5.66893443e-003,
          9.07029491e-003, 3.40136047e-003, 1.13378686e-003,
          5.66893443e-003, 7.93650839e-003, 7.93650839e-003,
          7.93650839e-003, 0., 3.40136047e-003, 2.26757373e-003,
          2.26757373e-003, 1.13378686e-003, 1.02040814e-002,
          6.80272095e-003, 5.66893443e-003, 1.13378686e-003,
          9.07029491e-003, 4.53514745e-003, 5.66893443e-003,
          3.40136047e-003, 1.02040814e-002, 6.80272095e-003,
          2.26757373e-003, 2.26757373e-003, 1.02040814e-002,
          5.66893443e-003, 3.40136047e-003, 4.53514745e-003,
          1.13378689e-002, 6.80272095e-003, 2.26757373e-003,
          3.40136047e-003, 3.40136047e-003, 1.13378686e-003,
          5.66893443e-003, 6.80272095e-003, 4.53514745e-003,
          1.24716554e-002, 6.80272095e-003, 9.07029491e-003,
          3.40136047e-003, 2.26757373e-003, 2.26757373e-003,
          4.53514745e-003, 2.26757373e-003, 9.07029491e-003,
          6.80272095e-003, 2.26757373e-003, 4.53514745e-003,
          9.07029491e-003, 9.07029491e-003, 2.26757373e-003,
          3.40136047e-003, 0., 9.07029491e-003, 1.13378686e-003,
          7.93650839e-003, 2.26757373e-003, 3.40136047e-003,
          1.02040814e-002, 4.53514745e-003, 5.66893443e-003,
          3.40136047e-003, 1.02040814e-002, 7.93650839e-003 ]
      - [ 7.57575780e-003, 2.52525252e-003, 1.51515156e-002, 0., 0.,
          2.52525252e-003, 7.57575780e-003, 1.01010101e-002,
          7.57575780e-003, 2.52525252e-003, 2.52525252e-003, 0.,
          2.52525252e-003, 0., 7.57575780e-003, 4.79797982e-002,
          2.52525252e-003, 0., 7.57575780e-003, 0., 0., 7.57575780e-003,
          5.05050505e-003, 1.01010101e-002, 5.05050505e-003,
          5.05050505e-003, 2.52525252e-003, 2.52525252e-003,
          5.05050505e-003, 2.52525252e-003, 7.57575780e-003,
          2.52525252e-003, 2.52525252e-003, 1.26262624e-002,
          2.52525252e-003, 5.05050505e-003, 2.52525252e-003, 0.,
          7.57575780e-003, 1.01010101e-002, 2.52525252e-003,
          2.52525252e-003, 5.05050505e-003, 5.05050505e-003, 0.,
          1.01010101e-002, 7.57575780e-003, 0., 0., 0., 1.26262624e-002,
          0., 1.01010101e-002, 2.52525252e-003, 5.05050505e-003,
          1.76767670e-002, 7.57575780e-003, 0., 7.57575780e-003,
          2.52525252e-003, 0., 1.26262624e-002, 2.52525252e-003, 0., 0.,
          0., 0., 7.57575780e-003, 1.51515156e-002, 7.57575780e-003,
          5.05050505e-003, 1.01010101e-002, 0., 0., 1.51515156e-002,
          2.52525252e-003, 0., 0., 7.57575780e-003, 7.57575780e-003,
          2.52525252e-003, 5.05050505e-003, 2.52525252e-003,
          2.52525252e-003, 2.52525252e-003, 2.52525252e-003, 0., 0.,
          3.53535339e-002, 0., 7.57575780e-003, 0., 5.05050505e-003,
          7.57575780e-003, 5.05050505e-003, 2.52525252e-003,
          2.52525252e-003, 0., 5.05050505e-003, 7.57575780e-003,
          2.52525252e-003, 0., 5.05050505e-003, 2.52525252e-003,
          2.52525252e-003, 0., 7.57575780e-003, 5.05050505e-003,
          7.57575780e-003, 2.52525252e-003, 7.57575780e-003,
          7.57575780e-003, 1.26262624e-002, 2.52525252e-003,
          1.01010101e-002, 2.52525252e-003, 2.52525252e-003,
          1.26262624e-002, 2.52525252e-003, 2.52525252e-003,
          1.01010101e-002, 2.77777780e-002, 7.57575780e-003, 0.,
          5.05050505e-003, 7.57575780e-003, 7.57575780e-003, 0., 0.,
          1.26262624e-002, 2.52525252e-003, 5.05050505e-003,
          5.05050505e-003, 7.57575780e-003, 5.05050505e-003,
          1.01010101e-002, 2.52525252e-003, 0., 1.01010101e-002,
          2.52525252e-003, 1.26262624e-002, 2.52525252e-003,
          5.05050505e-003, 0., 2.52525252e-003, 2.52525252e-003,
          7.57575780e-003, 2.52525252e-003, 2.52525252e-003,
          5.05050505e-003, 2.52525252e-003, 5.05050505e-003,
          2.52525252e-003, 2.52525252e-003, 2.52525252e-003,
          5.05050505e-003, 2.52525252e-003, 2.52525252e-003,
          7.57575780e-003, 2.52525252e-003, 2.52525252e-003,
          2.52525252e-003, 7.57575780e-003, 2.52525252e-003,
          5.05050505e-003, 5.05050505e-003, 5.05050505e-003, 0.,
          5.05050505e-003, 7.57575780e-003, 0., 5.05050505e-003,
          2.52525252e-003, 1.01010101e-002, 0., 2.52525252e-003, 0.,
          2.52525252e-003, 2.52525252e-003, 1.26262624e-002,
          2.52525252e-003, 0., 1.51515156e-002, 2.52525252e-003, 0.,
          7.57575780e-003, 0., 2.52525252e-003, 2.27272734e-002, 0.,
          1.01010101e-002, 2.52525252e-003, 0., 2.52525252e-003,
          5.05050505e-003, 0., 1.01010101e-002, 2.52525252e-003,
          2.52525252e-003, 1.26262624e-002 ]
      - [ 6.94444496e-003, 9.92063526e-003, 2.97619076e-003,
          9.92063526e-003, 9.92063549e-004, 9.92063549e-004,
          2.97619076e-003, 9.92063526e-003, 3.96825420e-003,
          4.96031763e-003, 9.92063526e-003, 4.96031763e-003,
          3.96825420e-003, 0., 6.94444496e-003, 6.94444496e-003,
          3.96825420e-003, 5.95238153e-003, 7.93650839e-003,
          9.92063549e-004, 5.95238153e-003, 1.09126987e-002, 0.,
          6.94444496e-003, 9.92063549e-004, 1.09126987e-002, 0.,
          4.96031763e-003, 2.97619076e-003, 3.96825420e-003,
          5.95238153e-003, 4.96031763e-003, 1.28968265e-002,
          3.96825420e-003, 7.93650839e-003, 2.97619076e-003,
          6.94444496e-003, 1.28968265e-002, 1.98412710e-003,
          5.95238153e-003, 3.96825420e-003, 1.38888899e-002,
          2.97619076e-003, 7.93650839e-003, 0., 9.92063549e-004,
          8.92857183e-003, 4.96031763e-003, 1.09126987e-002, 0.,
          1.98412710e-003, 5.95238153e-003, 1.98412710e-003,
          7.93650839e-003, 2.97619076e-003, 1.98412710e-003, 0.,
          5.95238153e-003, 1.98412710e-003, 9.92063549e-004,
          6.94444496e-003, 4.96031763e-003, 1.98412710e-003,
          6.94444496e-003, 6.94444496e-003, 0., 7.93650839e-003,
          4.96031763e-003, 0., 9.92063549e-004, 2.97619076e-003,
          3.96825420e-003, 7.93650839e-003, 5.95238153e-003,
          9.92063549e-004, 6.94444496e-003, 1.98412710e-003, 0.,
          1.98412710e-003, 3.96825420e-003, 9.92063549e-004,
          2.97619076e-003, 2.97619076e-003, 1.98412710e-003,
          5.95238153e-003, 1.09126987e-002, 1.19047631e-002,
          2.97619076e-003, 2.97619076e-003, 5.95238153e-003,
          6.94444496e-003, 6.94444496e-003, 2.97619076e-003,
          5.95238153e-003, 3.96825420e-003, 5.95238153e-003,
          2.97619076e-003, 8.92857183e-003, 2.97619076e-003,
          5.95238153e-003, 5.95238153e-003, 4.96031763e-003,
          2.97619076e-003, 3.96825420e-003, 5.95238153e-003,
          9.92063549e-004, 8.92857183e-003, 8.92857183e-003,
          4.96031763e-003, 5.95238153e-003, 6.94444496e-003,
          3.96825420e-003, 8.92857183e-003, 9.92063549e-004,
          4.96031763e-003, 2.97619076e-003, 2.97619076e-003,
          3.96825420e-003, 2.97619076e-003, 2.97619076e-003,
          6.94444496e-003, 6.94444496e-003, 3.96825420e-003,
          1.19047631e-002, 6.94444496e-003, 1.98412710e-003,
          3.96825420e-003, 7.93650839e-003, 2.97619076e-003,
          5.95238153e-003, 5.95238153e-003, 3.96825420e-003,
          9.92063549e-004, 7.93650839e-003, 8.92857183e-003,
          6.94444496e-003, 1.28968265e-002, 9.92063549e-004,
          7.93650839e-003, 7.93650839e-003, 9.92063549e-004,
          4.96031763e-003, 3.96825420e-003, 8.92857183e-003,
          2.97619076e-003, 0., 1.98412710e-003, 7.93650839e-003,
          3.96825420e-003, 4.96031763e-003, 4.96031763e-003,
          2.97619076e-003, 3.96825420e-003, 4.96031763e-003,
          9.92063526e-003, 3.96825420e-003, 2.97619076e-003,
          3.96825420e-003, 2.97619076e-003, 9.92063526e-003,
          4.96031763e-003, 6.94444496e-003, 3.96825420e-003,
          2.97619076e-003, 1.98412710e-003, 4.96031763e-003,
          2.97619076e-003, 2.97619076e-003, 2.97619076e-003,
          4.96031763e-003, 4.96031763e-003, 5.95238153e-003, 0.,
          5.95238153e-003, 1.98412710e-003, 3.96825420e-003,
          2.97619076e-003, 4.96031763e-003, 8.92857183e-003,
          3.96825420e-003, 6.94444496e-003, 5.95238153e-003,
          1.09126987e-002, 5.95238153e-003, 6.94444496e-003,
          2.97619076e-003, 3.96825420e-003, 1.98412710e-003,
          3.96825420e-003, 5.95238153e-003, 2.97619076e-003,
          1.09126987e-002, 7.93650839e-003, 4.96031763e-003,
          5.95238153e-003, 6.94444496e-003, 2.97619076e-003,
          4.96031763e-003, 8.92857183e-003, 6.94444496e-003 ]
      - [ 7.40740774e-003, 7.40740774e-003, 2.46913591e-003, 0.,
          4.93827183e-003, 0., 2.46913591e-003, 2.46913591e-003, 0.,
          2.46913591e-003, 1.23456791e-002, 0., 4.93827183e-003, 0.,
          4.93827183e-003, 9.87654366e-003, 7.40740774e-003,
          9.87654366e-003, 2.46913591e-003, 7.40740774e-003,
          7.40740774e-003, 4.93827183e-003, 7.40740774e-003,
          7.40740774e-003, 0., 2.46913591e-003, 0., 1.23456791e-002, 0.,
          0., 2.46913591e-003, 7.40740774e-003, 0., 7.40740774e-003,
          7.40740774e-003, 9.87654366e-003, 9.87654366e-003,
          1.23456791e-002, 2.46913591e-003, 4.93827183e-003,
          2.46913591e-003, 4.93827183e-003, 0., 9.87654366e-003,
          7.40740774e-003, 2.46913591e-003, 1.48148155e-002,
          7.40740774e-003, 0., 7.40740774e-003, 4.93827183e-003,
          9.87654366e-003, 0., 9.87654366e-003, 2.46913591e-003, 0.,
          7.40740774e-003, 4.93827183e-003, 2.46913591e-003,
          7.40740774e-003, 0., 0., 0., 1.48148155e-002, 2.46913591e-003,
          2.46913591e-003, 7.40740774e-003, 1.23456791e-002,
          1.23456791e-002, 4.93827183e-003, 7.40740774e-003,
          7.40740774e-003, 4.93827183e-003, 0., 7.40740774e-003,
          2.46913591e-003, 1.23456791e-002, 2.46913591e-003,
          2.46913591e-003, 4.93827183e-003, 0., 7.40740774e-003,
          1.23456791e-002, 4.93827183e-003, 4.93827183e-003, 0., 0.,
          2.46913591e-003, 2.71604955e-002, 7.40740774e-003,
          4.93827183e-003, 9.87654366e-003, 2.46913591e-003,
          7.40740774e-003, 2.46913591e-003, 1.23456791e-002,
          2.46913591e-003, 7.40740774e-003, 2.46913591e-003,
          4.93827183e-003, 4.93827183e-003, 4.93827183e-003,
          2.46913591e-003, 2.46913591e-003, 1.23456791e-002,
          9.87654366e-003, 9.87654366e-003, 7.40740774e-003, 0.,
          7.40740774e-003, 7.40740774e-003, 0., 7.40740774e-003,
          4.93827183e-003, 4.93827183e-003, 0., 0., 4.93827183e-003,
          1.23456791e-002, 1.48148155e-002, 0., 0., 7.40740774e-003,
          2.46913591e-003, 9.87654366e-003, 0., 0., 4.93827183e-003,
          4.93827183e-003, 0., 7.40740774e-003, 0., 9.87654366e-003,
          4.93827183e-003, 0., 4.93827183e-003, 4.93827183e-003, 0.,
          7.40740774e-003, 0., 4.93827183e-003, 0., 7.40740774e-003,
          2.46913591e-003, 7.40740774e-003, 0., 2.46913591e-003,
          7.40740774e-003, 0., 1.48148155e-002, 2.46913591e-003,
          1.48148155e-002, 4.93827183e-003, 7.40740774e-003,
          2.46913591e-003, 4.93827183e-003, 2.46913591e-003,
          7.40740774e-003, 2.46913591e-003, 0., 2.46913591e-003,
          9.87654366e-003, 4.93827183e-003, 4.93827183e-003,
          2.46913591e-003, 7.40740774e-003, 0., 7.40740774e-003,
          4.93827183e-003, 7.40740774e-003, 2.46913591e-003,
          7.40740774e-003, 7.40740774e-003, 9.87654366e-003,
          7.40740774e-003, 4.93827183e-003, 0., 2.46913591e-003, 0.,
          2.46913591e-003, 0., 2.46913591e-003, 9.87654366e-003,
          4.93827183e-003, 2.46913591e-003, 7.40740774e-003,
          2.46913591e-003, 7.40740774e-003, 2.46913591e-003,
          4.93827183e-003, 7.40740774e-003, 4.93827183e-003,
          4.93827183e-003, 4.93827183e-003, 4.93827183e-003,
          2.46913591e-003, 0., 2.46913591e-003, 0., 9.87654366e-003 ]
      - [ 3.27332248e-003, 8.18330608e-003, 6.54664496e-003,
          1.47299515e-002, 6.54664496e-003, 1.63666124e-003,
          1.63666124e-003, 3.27332248e-003, 9.81996767e-003,
          1.63666124e-003, 0., 3.27332248e-003, 3.27332248e-003, 0.,
          3.27332248e-003, 3.27332248e-003, 9.81996767e-003,
          4.90998384e-003, 8.18330608e-003, 3.27332248e-003,
          9.81996767e-003, 1.63666124e-003, 1.63666124e-003,
          6.54664496e-003, 1.63666124e-003, 4.90998384e-003,
          3.27332248e-003, 3.27332248e-003, 8.18330608e-003,
          1.63666124e-003, 3.27332248e-003, 8.18330608e-003,
          8.18330608e-003, 8.18330608e-003, 6.54664496e-003,
          6.54664496e-003, 1.63666124e-003, 1.63666122e-002,
          3.27332248e-003, 6.54664496e-003, 6.54664496e-003,
          1.63666124e-003, 9.81996767e-003, 6.54664496e-003,
          1.63666124e-003, 1.63666124e-003, 3.27332248e-003,
          1.63666124e-003, 4.90998384e-003, 4.90998384e-003,
          3.27332248e-003, 4.90998384e-003, 1.47299515e-002,
          6.54664496e-003, 3.27332248e-003, 3.27332248e-003,
          9.81996767e-003, 8.18330608e-003, 1.63666124e-003,
          6.54664496e-003, 3.27332248e-003, 3.27332248e-003,
          1.63666124e-003, 8.18330608e-003, 8.18330608e-003,
          3.27332248e-003, 4.90998384e-003, 1.63666124e-003,
          6.54664496e-003, 4.90998384e-003, 6.54664496e-003,
          4.90998384e-003, 3.27332248e-003, 8.18330608e-003,
          1.63666124e-003, 1.47299515e-002, 6.54664496e-003,
          1.63666124e-003, 0., 4.90998384e-003, 1.63666124e-003,
          1.63666124e-003, 1.63666124e-003, 8.18330608e-003,
          4.90998384e-003, 3.27332248e-003, 1.30932899e-002,
          9.81996767e-003, 4.90998384e-003, 4.90998384e-003,
          6.54664496e-003, 4.90998384e-003, 9.81996767e-003, 0., 0.,
          3.27332248e-003, 0., 6.54664496e-003, 1.63666124e-003,
          1.63666124e-003, 6.54664496e-003, 8.18330608e-003,
          4.90998384e-003, 0., 4.90998384e-003, 3.27332248e-003,
          3.27332248e-003, 6.54664496e-003, 4.90998384e-003,
          1.47299515e-002, 8.18330608e-003, 6.54664496e-003,
          9.81996767e-003, 0., 8.18330608e-003, 4.90998384e-003,
          1.63666124e-003, 4.90998384e-003, 3.27332248e-003,
          4.90998384e-003, 1.63666124e-003, 1.63666122e-002,
          1.63666124e-003, 6.54664496e-003, 4.90998384e-003,
          3.27332248e-003, 8.18330608e-003, 1.63666124e-003,
          3.27332248e-003, 6.54664496e-003, 8.18330608e-003,
          1.63666124e-003, 6.54664496e-003, 4.90998384e-003,
          4.90998384e-003, 0., 9.81996767e-003, 1.63666124e-003,
          4.90998384e-003, 8.18330608e-003, 3.27332248e-003,
          3.27332248e-003, 8.18330608e-003, 3.27332248e-003,
          6.54664496e-003, 0., 6.54664496e-003, 4.90998384e-003,
          4.90998384e-003, 3.27332248e-003, 1.63666124e-003, 0.,
          9.81996767e-003, 1.63666124e-003, 3.27332248e-003,
          4.90998384e-003, 3.27332248e-003, 4.90998384e-003,
          3.27332248e-003, 8.18330608e-003, 8.18330608e-003,
          4.90998384e-003, 0., 4.90998384e-003, 4.90998384e-003,
          4.90998384e-003, 4.90998384e-003, 3.27332248e-003,
          3.27332248e-003, 8.18330608e-003, 3.27332248e-003,
          1.30932899e-002, 8.18330608e-003, 8.18330608e-003,
          6.54664496e-003, 8.18330608e-003, 1.63666124e-003,
          6.54664496e-003, 3.27332248e-003, 3.27332248e-003,
          4.90998384e-003, 6.54664496e-003, 4.90998384e-003,
          1.63666124e-003, 4.90998384e-003, 3.27332248e-003,
          6.54664496e-003, 1.63666124e-003, 1.63666124e-003,
          6.54664496e-003, 3.27332248e-003, 4.90998384e-003,
          4.90998384e-003, 3.27332248e-003, 9.81996767e-003,
          4.90998384e-003, 1.63666124e-003, 3.27332248e-003,
          8.18330608e-003, 4.90998384e-003 ]
      - [ 2.92397663e-003, 1.16959065e-002, 2.92397663e-003,
          5.84795326e-003, 2.63157897e-002, 8.77192989e-003,
          5.84795326e-003, 2.92397663e-003, 2.92397663e-003,
          2.92397663e-003, 2.92397663e-003, 0., 2.92397663e-003, 0.,
          2.92397663e-003, 0., 5.84795326e-003, 0., 8.77192989e-003,
          8.77192989e-003, 5.84795326e-003, 5.84795326e-003,
          2.92397663e-003, 2.92397663e-003, 5.84795326e-003,
          2.92397663e-003, 8.77192989e-003, 1.75438598e-002,
          8.77192989e-003, 0., 5.84795326e-003, 5.84795326e-003,
          2.92397663e-003, 0., 8.77192989e-003, 2.92397663e-003, 0.,
          8.77192989e-003, 0., 2.92397663e-003, 2.92397663e-003,
          2.92397663e-003, 2.92397663e-003, 5.84795326e-003,
          2.92397663e-003, 2.92397663e-003, 2.92397663e-003, 0.,
          2.92397663e-003, 0., 2.92397663e-003, 8.77192989e-003, 0., 0.,
          8.77192989e-003, 2.92397663e-003, 2.92397663e-003,
          2.92397663e-003, 2.92397663e-003, 0., 0., 0., 5.84795326e-003,
          8.77192989e-003, 0., 0., 1.16959065e-002, 5.84795326e-003, 0.,
          0., 8.77192989e-003, 0., 2.92397663e-003, 2.92397663e-003,
          2.92397663e-003, 0., 2.92397663e-003, 0., 0., 2.92397663e-003,
          1.16959065e-002, 2.92397663e-003, 2.92397663e-003,
          1.16959065e-002, 8.77192989e-003, 5.84795326e-003,
          8.77192989e-003, 0., 2.92397663e-003, 2.04678364e-002,
          1.16959065e-002, 2.92397663e-003, 2.92397663e-003,
          2.92397663e-003, 1.16959065e-002, 0., 8.77192989e-003,
          5.84795326e-003, 2.92397663e-003, 8.77192989e-003,
          5.84795326e-003, 1.16959065e-002, 2.92397663e-003,
          8.77192989e-003, 2.92397663e-003, 0., 8.77192989e-003,
          2.92397663e-003, 2.92397663e-003, 1.16959065e-002,
          2.92397663e-003, 1.16959065e-002, 2.92397663e-003,
          1.16959065e-002, 2.92397663e-003, 2.92397663e-003, 0.,
          5.84795326e-003, 2.92397663e-003, 8.77192989e-003,
          2.92397663e-003, 0., 0., 0., 8.77192989e-003, 5.84795326e-003,
          8.77192989e-003, 0., 1.16959065e-002, 0., 2.92397663e-003,
          5.84795326e-003, 0., 5.84795326e-003, 0., 2.92397663e-003,
          1.46198831e-002, 1.46198831e-002, 1.75438598e-002, 0.,
          8.77192989e-003, 8.77192989e-003, 1.16959065e-002,
          1.16959065e-002, 0., 2.63157897e-002, 2.92397663e-003,
          2.92397663e-003, 2.92397663e-003, 0., 5.84795326e-003,
          2.92397663e-003, 0., 0., 8.77192989e-003, 0., 0.,
          5.84795326e-003, 0., 2.92397663e-003, 0., 2.92397663e-003, 0.,
          2.92397663e-003, 5.84795326e-003, 2.92397663e-003,
          2.92397663e-003, 0., 1.16959065e-002, 2.92397663e-003,
          8.77192989e-003, 5.84795326e-003, 0., 5.84795326e-003,
          5.84795326e-003, 2.92397663e-003, 2.92397663e-003, 0.,
          5.84795326e-003, 2.92397663e-003, 8.77192989e-003,
          8.77192989e-003, 8.77192989e-003, 5.84795326e-003,
          8.77192989e-003, 2.92397663e-003, 2.33918130e-002,
          2.63157897e-002, 8.77192989e-003, 1.16959065e-002,
          2.92397663e-003, 5.84795326e-003, 5.84795326e-003,
          2.92397663e-003, 0., 1.16959065e-002, 2.92397663e-003,
          8.77192989e-003, 2.92397663e-003, 0. ]
      - [ 7.78210117e-003, 5.83657576e-003, 1.94552529e-003,
          7.78210117e-003, 0., 1.94552529e-003, 5.83657576e-003,
          1.94552529e-003, 5.83657576e-003, 0., 5.83657576e-003,
          3.89105058e-003, 3.89105058e-003, 1.94552529e-003,
          9.72762611e-003, 0., 1.94552529e-003, 1.94552529e-003,
          1.94552529e-003, 5.83657576e-003, 3.89105058e-003,
          5.83657576e-003, 1.94552529e-003, 3.89105058e-003,
          5.83657576e-003, 3.89105058e-003, 0., 3.89105058e-003,
          5.83657576e-003, 5.83657576e-003, 0., 3.89105058e-003,
          5.83657576e-003, 5.83657576e-003, 7.78210117e-003,
          5.83657576e-003, 7.78210117e-003, 3.89105058e-003,
          5.83657576e-003, 0., 1.94552529e-003, 9.72762611e-003,
          3.89105058e-003, 3.89105058e-003, 1.94552529e-003,
          9.72762611e-003, 1.94552529e-003, 7.78210117e-003,
          5.83657576e-003, 1.94552529e-003, 1.94552529e-003,
          7.78210117e-003, 1.94552529e-003, 7.78210117e-003,
          5.83657576e-003, 5.83657576e-003, 0., 1.75097268e-002,
          5.83657576e-003, 2.52918284e-002, 5.83657576e-003,
          1.94552529e-003, 5.83657576e-003, 0., 3.89105058e-003,
          1.16731515e-002, 3.89105058e-003, 7.78210117e-003, 0.,
          3.89105058e-003, 3.89105058e-003, 7.78210117e-003,
          1.94552529e-003, 0., 7.78210117e-003, 3.89105058e-003,
          1.94552529e-003, 3.89105058e-003, 3.89105058e-003,
          1.94552529e-003, 0., 0., 7.78210117e-003, 1.16731515e-002,
          5.83657576e-003, 3.89105058e-003, 3.89105058e-003,
          9.72762611e-003, 0., 3.89105058e-003, 0., 0., 1.94552529e-003,
          3.89105058e-003, 0., 3.89105058e-003, 0., 1.16731515e-002,
          1.94552529e-003, 1.94552529e-003, 3.89105058e-003,
          7.78210117e-003, 1.16731515e-002, 3.89105058e-003,
          7.78210117e-003, 0., 3.89105058e-003, 0., 5.83657576e-003,
          3.89105058e-003, 1.94552529e-003, 1.94552529e-003,
          5.83657576e-003, 1.16731515e-002, 7.78210117e-003,
          1.94552529e-003, 5.83657576e-003, 9.72762611e-003,
          3.89105058e-003, 3.89105058e-003, 3.89105058e-003,
          9.72762611e-003, 5.83657576e-003, 5.83657576e-003,
          7.78210117e-003, 1.94552529e-003, 5.83657576e-003,
          3.89105058e-003, 5.83657576e-003, 5.83657576e-003, 0., 0.,
          7.78210117e-003, 5.83657576e-003, 7.78210117e-003,
          1.36186769e-002, 3.89105058e-003, 1.36186769e-002,
          3.89105058e-003, 9.72762611e-003, 9.72762611e-003,
          7.78210117e-003, 5.83657576e-003, 3.89105058e-003,
          9.72762611e-003, 1.16731515e-002, 1.94552529e-003,
          9.72762611e-003, 1.94552529e-003, 1.94552529e-003,
          2.14007776e-002, 9.72762611e-003, 7.78210117e-003,
          7.78210117e-003, 7.78210117e-003, 3.89105058e-003,
          3.89105058e-003, 3.89105058e-003, 0., 3.89105058e-003,
          1.16731515e-002, 0., 3.89105058e-003, 1.94552529e-003,
          1.94552529e-003, 5.83657576e-003, 1.94552529e-003,
          3.89105058e-003, 3.89105058e-003, 0., 1.94552529e-003,
          1.94552529e-003, 2.72373538e-002, 3.89105058e-003,
          1.94552529e-003, 7.78210117e-003, 7.78210117e-003,
          5.83657576e-003, 1.94552529e-003, 5.83657576e-003,
          3.89105058e-003, 5.83657576e-003, 3.89105058e-003, 0.,
          1.94552529e-003, 3.89105058e-003, 1.94552522e-002,
          7.78210117e-003, 3.89105058e-003, 0., 3.89105058e-003,
          3.89105058e-003, 9.72762611e-003, 1.94552529e-003,
          5.83657576e-003, 3.89105058e-003, 1.94552529e-003,
          1.94552529e-003, 7.78210117e-003, 1.94552529e-003 ]
      - [ 8.79765395e-003, 1.46627566e-002, 1.17302053e-002,
          7.91788846e-002, 8.79765395e-003, 0., 0., 8.79765395e-003,
          2.93255132e-003, 2.93255132e-003, 2.93255132e-003, 0.,
          2.93255132e-003, 0., 2.93255132e-003, 2.93255132e-003, 0., 0.,
          5.86510263e-003, 2.93255132e-003, 2.93255132e-003,
          8.79765395e-003, 2.93255132e-003, 5.86510263e-003, 0.,
          2.93255132e-003, 0., 1.17302053e-002, 0., 0., 5.86510263e-003,
          1.17302053e-002, 2.93255132e-003, 0., 1.46627566e-002,
          2.93255132e-003, 1.17302053e-002, 2.93255132e-003,
          5.86510263e-003, 8.79765395e-003, 0., 0., 2.93255132e-003,
          5.86510263e-003, 2.05278583e-002, 0., 8.79765395e-003,
          2.93255132e-003, 0., 5.86510263e-003, 2.93255132e-003, 0., 0.,
          8.79765395e-003, 0., 0., 0., 2.93255132e-003, 2.93255132e-003,
          0., 0., 2.93255132e-003, 2.93255132e-003, 1.46627566e-002,
          8.79765395e-003, 2.93255132e-003, 0., 2.93255132e-003,
          2.93255132e-003, 0., 5.86510263e-003, 5.86510263e-003,
          1.17302053e-002, 5.86510263e-003, 8.79765395e-003, 0.,
          8.79765395e-003, 0., 0., 5.86510263e-003, 0., 0., 0.,
          8.79765395e-003, 0., 8.79765395e-003, 5.86510263e-003, 0.,
          2.93255132e-003, 1.46627566e-002, 5.86510263e-003, 0., 0., 0.,
          2.93255132e-003, 2.93255132e-003, 8.79765395e-003,
          2.93255132e-003, 2.93255132e-003, 5.86510263e-003,
          5.86510263e-003, 2.93255132e-003, 2.93255132e-003,
          2.93255132e-003, 8.79765395e-003, 0., 2.93255132e-003, 0., 0.,
          0., 5.86510263e-003, 2.93255132e-003, 1.17302053e-002, 0.,
          5.86510263e-003, 1.17302053e-002, 2.93255132e-003, 0.,
          1.17302053e-002, 8.79765395e-003, 0., 0., 1.46627566e-002,
          8.79765395e-003, 1.46627566e-002, 0., 0., 5.86510263e-003,
          1.17302053e-002, 0., 2.93255132e-003, 8.79765395e-003,
          2.93255132e-003, 8.79765395e-003, 2.93255132e-003,
          5.86510263e-003, 2.93255132e-003, 0., 2.93255132e-003,
          2.93255132e-003, 0., 2.93255132e-003, 0., 5.86510263e-003, 0.,
          0., 0., 1.17302053e-002, 5.86510263e-003, 2.93255132e-003, 0.,
          2.93255132e-003, 0., 8.79765395e-003, 2.93255132e-003,
          2.93255132e-003, 0., 0., 1.17302053e-002, 0., 5.86510263e-003,
          0., 0., 5.86510263e-003, 2.93255132e-003, 0., 2.93255132e-003,
          5.86510263e-003, 0., 2.93255132e-003, 1.17302053e-002,
          2.93255132e-003, 5.86510263e-003, 1.46627566e-002,
          1.46627566e-002, 8.79765395e-003, 5.86510263e-003,
          2.93255132e-003, 0., 0., 2.93255132e-003, 6.45161271e-002,
          1.75953079e-002, 2.93255132e-003, 1.75953079e-002, 0.,
          2.93255132e-003, 5.86510263e-003, 0., 5.86510263e-003, 0.,
          8.79765395e-003, 5.86510263e-003, 8.79765395e-003,
          8.79765395e-003, 8.79765395e-003, 0., 5.86510263e-003,
          2.93255132e-003, 2.93255132e-003 ]
      - [ 1.90839695e-003, 7.63358781e-003, 2.09923666e-002,
          7.63358781e-003, 2.29007639e-002, 3.81679391e-003, 0., 0., 0.,
          3.81679391e-003, 3.81679391e-003, 7.63358781e-003,
          3.81679391e-003, 1.90839695e-003, 0., 2.86259539e-002,
          5.72519097e-003, 9.54198465e-003, 0., 5.72519097e-003,
          9.54198465e-003, 7.63358781e-003, 5.72519097e-003,
          1.90839695e-003, 9.54198465e-003, 0., 0., 3.81679391e-003,
          1.90839695e-003, 0., 5.72519097e-003, 7.63358781e-003,
          1.90839695e-003, 1.90839695e-003, 0., 3.81679391e-003, 0.,
          7.63358781e-003, 3.81679391e-003, 7.63358781e-003,
          3.81679391e-003, 3.81679391e-003, 3.81679391e-003,
          1.90839695e-003, 0., 1.90839695e-003, 9.54198465e-003,
